<?xml version="1.0"?>
<opencv_storage>
<opencv_ml_svm>
  <format>3</format>
  <svmType>C_SVC</svmType>
  <kernel>
    <type>RBF</type>
    <gamma>2.2500000000000003e-03</gamma></kernel>
  <C>1.2500000000000000e+01</C>
  <term_criteria><epsilon>1.1920928955078125e-07</epsilon>
    <iterations>1000</iterations></term_criteria>
  <var_count>3780</var_count>
  <class_count>2</class_count>
  <class_labels type_id="opencv-matrix">
    <rows>2</rows>
    <cols>1</cols>
    <dt>i</dt>
    <data>
      -1 1</data></class_labels>
  <sv_total>16</sv_total>
  <support_vectors>
    <_>
      1.47610337e-01 1.12032272e-01 1.13131277e-01 2.94713490e-02
      1.57335967e-01 2.90713366e-02 4.15711701e-02 6.14847727e-02
      1.02144271e-01 2.22171977e-01 1.90011367e-01 1.72941118e-01
      4.87580262e-02 1.00522675e-01 6.13393188e-02 7.75689110e-02
      9.17237476e-02 1.51857048e-01 1.94656745e-01 2.77687341e-01
      3.15910369e-01 7.62999877e-02 1.77536011e-01 1.26297176e-02
      2.45428234e-02 4.31437977e-02 1.31188050e-01 2.73515671e-01
      3.80085737e-01 3.80085737e-01 3.13010439e-02 2.02973753e-01
      1.52787641e-02 7.89737627e-02 7.69356936e-02 2.17396557e-01
      7.60604069e-02 1.35842860e-01 5.88883683e-02 1.83461402e-02
      3.81244980e-02 1.10826474e-02 4.54799607e-02 2.44556610e-02
      5.45815900e-02 2.46060595e-01 3.98442090e-01 1.19547077e-01
      7.10927742e-03 5.00452109e-02 1.13721308e-03 3.79842147e-02
      2.10840330e-02 7.98879936e-02 9.75205153e-02 3.98442090e-01
      3.98442090e-01 3.40344058e-03 3.12757380e-02 1.15588936e-03
      2.60068439e-02 1.57508682e-02 6.86213002e-02 2.72572935e-01
      3.98442090e-01 3.83435339e-01 3.45704285e-03 1.17197102e-02
      7.58142123e-05 5.64046577e-03 2.61975778e-03 4.92549539e-02
      3.56629223e-01 3.56629223e-01 1.00381479e-01 9.42703336e-04
      2.30552144e-02 0. 8.42044875e-03 6.38805795e-03 8.16342384e-02
      3.56629223e-01 3.56629223e-01 7.03622773e-02 5.71469869e-03
      5.68223186e-03 0. 6.14554016e-03 5.50264586e-03 9.18332860e-02
      2.99784690e-01 3.56629223e-01 1.75161630e-01 3.28304735e-03
      4.96620871e-03 0. 9.09205992e-04 1.48460222e-03 2.26561669e-02
      2.69570172e-01 3.56629223e-01 8.92933160e-02 1.38446940e-02
      2.26055970e-03 1.04321422e-04 1.23903726e-03 3.64797097e-03
      2.17122231e-02 3.97094220e-01 3.97094220e-01 7.63633847e-02
      1.41649833e-02 1.30311735e-02 9.40751052e-04 1.20614413e-02
      1.66483335e-02 1.02071911e-01 3.97094220e-01 3.97094220e-01
      7.15722367e-02 8.68561864e-03 2.09435113e-02 5.42668300e-03
      1.10700922e-02 2.18853187e-02 1.18230239e-01 2.16405258e-01
      3.89956295e-01 1.40283763e-01 3.00589502e-02 4.30640485e-03
      8.11113860e-04 1.27642148e-03 1.09192049e-02 2.96239741e-02
      1.17961064e-01 2.77939498e-01 1.14673749e-01 1.56898201e-02
      7.82500301e-03 1.75944413e-03 4.05626278e-03 2.43594740e-02
      4.76917662e-02 3.88202995e-01 3.88202995e-01 3.70605104e-02
      3.94121232e-03 1.65525097e-02 1.70112532e-02 1.69447288e-02
      2.26077847e-02 2.21469298e-01 3.88202995e-01 3.88202995e-01
      2.99385656e-02 5.40819811e-03 1.42433448e-02 1.66985001e-02
      2.32666023e-02 3.32540572e-02 3.07345241e-01 1.78175956e-01
      3.14002603e-01 7.07230791e-02 1.57724582e-02 7.41716893e-03
      4.54270234e-03 8.70067999e-03 2.63938773e-02 5.62231056e-02
      1.96783140e-01 2.43339583e-01 6.18874989e-02 1.45659307e-02
      6.37356192e-03 5.75583288e-03 1.05073769e-02 1.03674419e-02
      4.61024009e-02 3.91282976e-01 3.91282976e-01 7.73881450e-02
      5.70153333e-02 9.85241085e-02 1.76265966e-02 3.12823579e-02
      4.87039872e-02 3.91282976e-01 3.91282976e-01 1.90129876e-01
      1.02215603e-01 8.36096033e-02 9.90331396e-02 1.00683179e-02
      1.44714098e-02 4.12619226e-02 3.43041211e-01 2.15675458e-01
      2.77192950e-01 8.70359018e-02 2.37088297e-02 2.19875164e-02
      1.09860487e-02 1.84858944e-02 1.93750188e-02 6.92854598e-02
      9.16241780e-02 1.29090250e-01 7.55150840e-02 4.13272381e-02
      3.05433273e-02 2.86757220e-02 4.54811379e-02 3.68645638e-02
      5.21912463e-02 3.47852349e-01 2.54897803e-01 2.09643498e-01
      6.03339486e-02 7.95196220e-02 1.69900861e-02 2.26261094e-02
      4.88933250e-02 2.98728406e-01 3.47852349e-01 3.47852349e-01
      2.11853579e-01 3.09066996e-02 5.34527078e-02 2.43033431e-02
      3.63505073e-02 6.76040947e-02 2.21399814e-01 1.14909172e-01
      1.12839438e-01 7.68661126e-02 6.65732697e-02 4.57621291e-02
      5.45008034e-02 1.09681591e-01 9.79609787e-02 7.69666582e-02
      2.46337533e-01 2.15091139e-01 1.44103616e-01 1.56544909e-01
      9.63065699e-02 7.81129003e-02 1.03485659e-01 1.08998835e-01
      2.42759794e-01 3.07251573e-01 1.96938187e-01 5.41592501e-02
      5.66823455e-03 2.02322695e-02 3.49752977e-02 5.81775941e-02
      5.57260290e-02 1.94603324e-01 2.34618828e-01 6.57476708e-02
      1.71645246e-02 1.63735319e-02 3.07401996e-02 6.09761178e-02
      1.12698101e-01 2.27599636e-01 3.21425617e-01 2.69519478e-01
      2.14712292e-01 8.22490901e-02 6.14730120e-02 4.11255695e-02
      4.69668061e-02 6.28678873e-02 7.61324987e-02 3.21425617e-01
      2.95714229e-01 1.36399537e-01 4.07365412e-02 2.99545135e-02
      4.02229056e-02 7.35979378e-02 1.17099971e-01 3.21425617e-01
      3.21425617e-01 1.70310423e-01 9.75901410e-02 1.47970822e-02
      1.94371063e-02 3.67460810e-02 3.72563191e-02 5.47897890e-02
      1.95481256e-01 3.13323945e-01 3.13323945e-01 2.08433390e-01
      1.87551007e-02 1.46811875e-02 4.37937230e-02 1.87726431e-02
      8.38544667e-02 1.93811715e-01 3.13323945e-01 2.13240623e-01
      1.52995035e-01 5.36956601e-02 4.14764322e-02 5.36923148e-02
      1.18062489e-01 7.55311325e-02 2.62824088e-01 3.04530919e-01
      3.13323945e-01 2.45373085e-01 4.82616089e-02 3.78043503e-02
      3.21519822e-02 9.37770158e-02 9.92188454e-02 1.20930426e-01
      2.72283405e-01 3.15531939e-01 1.49174094e-01 1.72637999e-02
      1.49800722e-02 4.93495986e-02 3.07224970e-02 1.56587884e-01
      1.95890203e-01 3.15531939e-01 2.89101213e-01 7.91194811e-02
      1.87370852e-02 2.45806035e-02 8.59075561e-02 7.58888721e-02
      2.18199894e-01 2.70573795e-01 3.15531939e-01 3.14387709e-01
      1.10966794e-01 1.56124225e-02 3.53027210e-02 3.94574255e-02
      5.66709004e-02 1.93235278e-01 1.62845865e-01 1.96284801e-01
      7.86958709e-02 4.21452597e-02 1.25889657e-02 2.54841913e-02
      6.04497865e-02 1.08031556e-01 2.30496719e-01 2.73884177e-01
      1.11003540e-01 1.39417619e-01 1.55825764e-02 7.85383955e-03
      1.05132796e-02 2.61854790e-02 2.22366098e-02 7.54894838e-02
      3.78491163e-01 4.65408415e-01 1.48738280e-01 2.29249168e-02
      7.03643775e-03 3.28069110e-03 8.88208579e-03 1.13927377e-02
      1.00605756e-01 4.65408415e-01 4.65408415e-01 7.41583034e-02
      2.68813558e-02 7.28738587e-03 7.44134095e-03 1.97627731e-02
      3.76111865e-02 8.34641606e-02 1.56134009e-01 1.29692867e-01
      1.29647717e-01 1.11892156e-01 1.85924433e-02 1.06070051e-02
      1.30062923e-02 1.61530618e-02 6.43990710e-02 1.68312594e-01
      1.53353602e-01 6.30829930e-02 1.94136426e-02 9.55036562e-03
      4.07773815e-03 9.25712101e-03 4.80102887e-03 7.32380375e-02
      4.43260401e-01 4.43260401e-01 1.03999764e-01 1.72342788e-02
      1.53837111e-02 5.70917642e-03 2.40924340e-02 4.70045675e-03
      8.24946389e-02 4.43260401e-01 4.43260401e-01 5.85937500e-02
      1.06995083e-01 3.27821970e-02 9.28809680e-03 1.00216176e-02
      6.73185289e-03 4.42441478e-02 1.23227820e-01 6.54833242e-02
      9.86954197e-02 1.09753318e-01 5.67590743e-02 1.23949526e-02
      1.16109960e-02 6.46657217e-03 6.97721168e-02 2.55225986e-01
      2.18999788e-01 6.48386925e-02 1.95720629e-03 2.65942072e-03
      1.03749032e-03 2.79553942e-02 2.70702434e-03 8.14819187e-02
      3.53854358e-01 3.53854358e-01 1.10276282e-01 1.93353358e-03
      6.17401861e-03 1.25215680e-03 4.44652624e-02 2.22755596e-03
      1.65954739e-01 3.53854358e-01 3.53854358e-01 5.91884665e-02
      2.12101359e-02 1.26685007e-02 2.73453374e-03 4.44993377e-03
      7.27929734e-03 7.11413398e-02 3.11134785e-01 2.16019422e-01
      6.47889823e-02 2.80241063e-03 3.52100073e-03 3.49829323e-03
      6.21384988e-03 2.19802801e-02 1.85309574e-01 3.53854358e-01
      3.53854358e-01 7.83526823e-02 3.56782530e-03 9.62401275e-03
      6.07035472e-04 2.71184817e-02 3.22480896e-03 1.62827447e-01
      3.72765750e-01 2.33830020e-01 4.74247895e-02 6.35103136e-03
      9.13455989e-03 2.84709939e-04 2.03389097e-02 8.13756604e-03
      1.31758586e-01 2.99360365e-01 1.17771007e-01 6.14061840e-02
      1.51914929e-03 1.84493524e-03 1.77931541e-03 9.29938350e-03
      1.22919669e-02 2.59548962e-01 3.72765750e-01 3.37063789e-01
      6.01541288e-02 1.44712359e-03 6.17604412e-04 0. 1.40035721e-02
      4.42367280e-03 3.72765750e-01 3.72765750e-01 1.99367106e-01
      1.06442831e-01 3.33322696e-02 2.83695590e-02 1.33844009e-02
      8.64987820e-02 4.20559868e-02 1.36402339e-01 3.24705422e-01
      2.13940635e-01 1.55141711e-01 6.57378286e-02 1.68160107e-02
      3.97087857e-02 1.42882079e-01 6.75391927e-02 7.69309849e-02
      8.98850784e-02 1.78944483e-01 9.84052196e-02 9.61319357e-03
      1.46832177e-03 8.52881372e-03 9.58269686e-02 5.99237196e-02
      3.78283828e-01 3.78283828e-01 2.53490716e-01 1.50724143e-01
      8.10523033e-02 2.70620231e-02 3.15416194e-02 1.52819112e-01
      9.55488682e-02 3.42523962e-01 3.00158590e-01 2.41856471e-01
      4.87888232e-02 1.67503849e-01 2.38668010e-01 8.15259665e-02
      5.99074177e-02 1.60530035e-04 2.79382477e-03 8.17363150e-03
      4.24555987e-02 4.96954918e-02 3.65865797e-01 3.65865797e-01
      5.99713624e-02 4.95787673e-02 3.66434862e-04 1.35911042e-02
      1.81263220e-02 4.60959002e-02 2.28864886e-02 2.18425304e-01
      3.65865797e-01 3.30619097e-01 7.31701255e-02 7.36058428e-05
      4.95760527e-04 2.18674750e-03 2.20646653e-02 1.89183373e-02
      3.65865797e-01 3.65865797e-01 2.28098050e-01 1.82801243e-02
      1.17273547e-03 2.90710339e-03 6.93965470e-03 1.46137988e-02
      4.09450829e-02 3.89971733e-01 3.89971733e-01 3.53265665e-02
      2.09805872e-02 3.40709870e-04 1.60496812e-02 1.22600552e-02
      3.02219894e-02 7.72574320e-02 3.89971733e-01 3.89971733e-01
      4.77224588e-02 3.01961577e-03 6.47869601e-04 3.63239762e-03
      4.57399711e-03 1.49093391e-02 1.72750130e-02 3.89971733e-01
      3.89971733e-01 8.57491940e-02 1.04604950e-02 3.14264325e-03
      4.15761303e-03 6.89305738e-03 5.95719507e-03 1.70024242e-02
      1.48909435e-01 1.80707455e-01 8.23017284e-02 1.37863318e-02
      7.61302002e-03 1.26193957e-02 1.40469018e-02 8.41817167e-03
      2.33898789e-01 3.78440350e-01 3.78440350e-01 7.87891001e-02
      2.15171427e-02 2.79451162e-02 2.46629938e-02 4.64982800e-02
      2.49515940e-02 1.88184679e-01 3.78440350e-01 2.50445545e-01
      6.10386282e-02 5.22115678e-02 8.04179907e-02 3.10586039e-02
      5.33245802e-02 5.84399812e-02 7.43955597e-02 1.85593829e-01
      2.16651276e-01 1.39124587e-01 7.02048317e-02 9.29740220e-02
      9.23685133e-02 1.06357843e-01 6.11411706e-02 2.45040774e-01
      1.49308890e-01 1.15902528e-01 3.49378027e-02 1.13041177e-01
      2.22091734e-01 1.27512425e-01 1.76907286e-01 1.80712327e-01
      1.97020784e-01 3.03232193e-01 3.03232193e-01 8.32236186e-02
      3.77351902e-02 4.31794971e-02 1.37918023e-02 7.13903606e-02
      1.33067399e-01 1.91515580e-01 3.03232193e-01 2.32706547e-01
      5.46640567e-02 2.61647590e-02 9.22220666e-03 1.59679484e-02
      1.59190103e-01 2.28001773e-01 3.03232193e-01 1.57833338e-01
      1.39813587e-01 2.27161050e-02 5.81412613e-02 1.24134839e-01
      1.06589898e-01 2.32621849e-01 2.46339619e-01 2.08422273e-01
      9.65305567e-02 5.44719025e-02 2.68448573e-02 2.29171589e-02
      2.29172669e-02 6.98751509e-02 2.84980446e-01 2.26849034e-01
      2.09420487e-01 2.70511508e-01 1.19908907e-01 5.97375482e-02
      2.27798298e-02 1.50194084e-02 4.93100211e-02 1.65734679e-01
      2.43431404e-01 2.23916709e-01 2.33887568e-01 1.39325961e-01
      5.15606329e-02 2.19682138e-02 3.87542173e-02 6.55377135e-02
      7.26515129e-02 2.00825781e-01 3.13100755e-01 1.21330976e-01
      6.34014085e-02 2.50249449e-02 2.69496832e-02 2.40347125e-02
      7.20570385e-02 2.32648432e-01 2.50210404e-01 3.31240058e-01
      2.68918544e-01 1.40635997e-01 5.25949299e-02 6.85470179e-02
      7.10487738e-02 1.27440095e-01 2.38114849e-01 2.55170822e-01
      2.38197207e-01 1.97343811e-01 1.09221391e-01 2.50906125e-02
      3.69425789e-02 4.57623340e-02 2.44024675e-02 2.78171431e-02
      1.44164681e-01 1.35719538e-01 2.11419061e-01 9.91793349e-02
      4.62326743e-02 5.73174395e-02 6.22175224e-02 4.78900447e-02
      6.10089488e-02 8.38080943e-02 3.45412761e-01 2.52521604e-01
      1.17343724e-01 4.78794090e-02 1.17341779e-01 1.64663404e-01
      1.53824270e-01 2.66643316e-01 2.42573977e-01 3.41511846e-01
      3.59659910e-01 1.73360378e-01 8.16661716e-02 1.13006160e-01
      1.31248772e-01 6.66355789e-02 1.22659609e-01 2.03593358e-01
      1.37035802e-01 1.69199809e-01 1.13824271e-01 5.31868637e-02
      4.55597825e-02 3.89990769e-02 5.82584962e-02 8.46952945e-02
      6.54448569e-02 2.64704794e-01 2.37819999e-01 1.99197114e-01
      2.29516789e-01 1.21292315e-01 1.27965927e-01 8.48937333e-02
      1.03220880e-01 1.38137266e-01 2.55383462e-01 3.37049991e-01
      2.15779141e-01 6.83091655e-02 5.12274988e-02 3.23491953e-02
      1.64060947e-02 6.38310835e-02 1.32986680e-01 3.44379604e-01
      3.17756474e-01 1.86912909e-01 1.06088713e-01 7.08395466e-02
      8.39056224e-02 3.80009376e-02 1.53028592e-01 2.63585448e-01
      1.86578766e-01 2.14056671e-01 1.19472876e-01 1.15221880e-01
      7.45080709e-02 1.09816745e-01 7.25632906e-02 7.57956654e-02
      2.00973213e-01 2.84472078e-01 2.98332185e-01 1.60632774e-01
      5.52935936e-02 4.53712307e-02 6.74324781e-02 9.83957350e-02
      2.37754896e-01 2.98332185e-01 2.26654291e-01 2.70643651e-01
      1.40941888e-01 7.19249174e-02 6.78022802e-02 8.31130296e-02
      6.34971857e-02 1.04401767e-01 1.74899355e-01 2.32462704e-01
      2.98332185e-01 2.40710169e-01 6.10753931e-02 6.48673922e-02
      7.26359561e-02 1.13420509e-01 8.16082731e-02 1.37175322e-01
      2.73488849e-01 2.31748685e-01 1.69889554e-01 6.04662262e-02
      4.90262695e-02 8.54598656e-02 8.21874216e-02 2.28925765e-01
      2.75165975e-01 3.02267820e-01 1.45202026e-01 9.25263241e-02
      4.07948568e-02 1.17022201e-01 1.38906345e-01 1.01977341e-01
      1.16398588e-01 1.87108725e-01 2.23057419e-01 2.73518980e-01
      1.75916970e-01 5.67771904e-02 6.31439984e-02 7.39482790e-02
      1.10328041e-01 1.09878995e-01 1.12644196e-01 1.70566231e-01
      8.73793811e-02 5.89748137e-02 3.76404971e-02 1.87799379e-01
      1.28032565e-01 1.60209075e-01 3.03976297e-01 2.45466739e-01
      1.66252092e-01 6.39274344e-02 3.86517160e-02 3.75884660e-02
      1.18382856e-01 9.33240801e-02 1.48293331e-01 1.20476685e-01
      9.66115147e-02 2.07615718e-01 4.67483662e-02 2.71009225e-02
      6.41511679e-02 4.92646620e-02 5.93482293e-02 1.81494892e-01
      2.45450690e-01 2.36561745e-01 9.89800096e-02 3.85394059e-02
      3.01785730e-02 2.64031105e-02 1.51322380e-01 9.32264999e-02
      1.58278108e-01 3.35026860e-01 3.35026860e-01 2.87548095e-01
      7.13162199e-02 3.98400277e-02 7.72713646e-02 2.46516429e-02
      1.06993318e-01 2.49664441e-01 3.35026860e-01 3.35026860e-01
      2.76035100e-01 5.53017110e-02 1.56031214e-02 3.26213613e-02
      2.44216975e-02 4.74882945e-02 1.13019958e-01 2.09478453e-01
      2.94406682e-01 2.75022179e-01 1.55681401e-01 2.62621660e-02
      2.92724241e-02 5.08452505e-02 7.36290067e-02 1.28574297e-01
      1.04704380e-01 1.64166585e-01 3.09737086e-01 1.27043352e-01
      1.04335710e-01 1.02257162e-01 2.38657296e-02 1.40226781e-01
      2.14159712e-01 1.86838627e-01 3.09737086e-01 3.09737086e-01
      1.45433351e-01 1.51656270e-01 1.11592449e-01 6.44758195e-02
      1.17007725e-01 1.94129631e-01 1.21693648e-01 2.30311289e-01
      2.45941013e-01 2.23812759e-01 6.93208426e-02 2.41969395e-02
      6.21924140e-02 5.12063913e-02 1.10935628e-01 7.22377673e-02
      6.84915558e-02 3.30538541e-01 3.30538541e-01 1.07878380e-01
      1.39919547e-02 4.22020517e-02 2.10789945e-02 1.17735893e-01
      1.36379585e-01 1.67704836e-01 3.22116524e-01 1.15736015e-01
      8.21146965e-02 4.27118391e-02 5.02804779e-02 5.37337214e-02
      1.27743468e-01 1.01604201e-01 1.37686089e-01 3.30538541e-01
      2.13916704e-01 6.05543442e-02 2.50384044e-02 2.23030578e-02
      2.23006103e-02 2.04567477e-01 3.30538541e-01 2.65934199e-01
      2.97482222e-01 1.15032822e-01 3.05519719e-02 6.05609966e-03
      6.12225803e-03 1.24128899e-02 8.12152326e-02 1.75029665e-01
      2.28901312e-01 1.54445052e-01 1.68774910e-02 2.35239547e-02
      2.46509295e-02 1.29014989e-02 8.07225406e-02 2.66527325e-01
      2.97482222e-01 2.97482222e-01 2.97482222e-01 9.88509730e-02
      1.73863787e-02 1.45732760e-02 2.66496069e-03 9.66883358e-03
      1.00784019e-01 2.97482222e-01 2.93812662e-01 1.67641312e-01
      9.42680687e-02 9.45965424e-02 9.98393372e-02 4.26167846e-02
      7.13955611e-02 1.74823433e-01 2.97482222e-01 2.42405042e-01
      4.06823531e-02 5.73437149e-03 1.08288862e-02 1.12640103e-02
      1.19724572e-02 4.26230840e-02 2.43129343e-01 4.56771344e-01
      1.93580732e-01 5.01584001e-02 7.65348319e-03 6.15816470e-03
      4.15339554e-03 1.57470219e-02 2.65958551e-02 4.56771344e-01
      4.56771344e-01 1.60872534e-01 3.60927954e-02 2.86885668e-02
      4.49954085e-02 4.55805995e-02 2.97092181e-02 5.15704304e-02
      8.42855871e-02 1.00448631e-01 8.37864429e-02 5.44587560e-02
      3.00210603e-02 1.99929625e-02 1.60355456e-02 1.37980832e-02
      3.29926908e-02 3.30780566e-01 2.80806929e-01 1.07329257e-01
      1.38206435e-02 2.38802587e-03 2.29175109e-03 6.86527987e-04
      1.96022801e-02 2.63096131e-02 3.41151923e-01 3.41151923e-01
      3.53225321e-02 3.52537520e-02 3.11281215e-02 2.16905288e-02
      9.03094187e-03 4.92571332e-02 3.88537906e-02 3.41151923e-01
      3.33607972e-01 5.04964888e-02 1.04018943e-02 7.83369411e-03
      5.40795084e-03 4.69019683e-03 8.69420264e-03 3.78095210e-02
      3.41151923e-01 3.41151923e-01 2.07261648e-02 8.87270831e-03
      1.82347521e-02 1.44146271e-02 3.76038603e-03 4.27568182e-02
      2.32410803e-01 3.41151923e-01 3.41151923e-01 1.40388152e-02
      2.75956304e-03 9.06070471e-02 3.70634675e-01 3.70634675e-01
      1.27789825e-01 3.06860381e-03 2.09509177e-04 1.07401796e-03
      3.22022545e-03 1.28381895e-02 1.16049483e-01 3.70634675e-01
      2.97851235e-01 3.49757634e-02 6.25075866e-03 2.78702937e-03
      4.56232112e-03 3.06944340e-03 5.39327099e-04 5.88983577e-03
      3.04086745e-01 3.70634675e-01 3.70634675e-01 4.60367166e-02
      4.43356251e-03 3.98298958e-03 1.97095121e-03 1.62181091e-02
      2.23161634e-02 1.39252901e-01 2.33651787e-01 9.08525586e-02
      3.30514126e-02 1.40134152e-02 3.96507606e-02 2.65906509e-02
      1.20173439e-01 3.38178486e-01 3.38178486e-01 3.38178486e-01
      1.23590320e-01 2.55407039e-02 3.22109237e-02 3.50329876e-02
      8.21805093e-03 1.16541691e-01 2.36995175e-01 1.96034104e-01
      1.67833149e-01 8.54215920e-02 4.39138114e-02 6.43011630e-02
      6.86204582e-02 3.70679498e-02 1.39053240e-01 1.42085806e-01
      2.85234988e-01 3.38178486e-01 2.03906462e-01 6.95853531e-02
      8.03841054e-02 1.81231648e-01 1.21616155e-01 1.55819818e-01
      1.13240451e-01 7.60993734e-02 1.60921559e-01 1.04065336e-01
      6.02197945e-02 9.80141535e-02 1.57826930e-01 1.07285768e-01
      1.19778655e-01 1.68253899e-01 1.02743313e-01 7.69435167e-02
      5.42773120e-02 5.73656932e-02 7.82676488e-02 7.72735178e-02
      7.57704526e-02 3.39517683e-01 3.31936836e-01 9.70618501e-02
      5.58519773e-02 8.04823637e-02 1.26850903e-01 1.23963036e-01
      1.73011079e-01 1.96024328e-01 2.56281286e-01 2.27921188e-01
      7.65564293e-02 1.00386426e-01 5.35654239e-02 4.72701937e-02
      7.62268081e-02 1.23992734e-01 1.43627688e-01 3.39517683e-01
      3.39517683e-01 1.99009210e-01 2.23488778e-01 1.09731346e-01
      1.20795786e-01 1.15395360e-01 9.54181179e-02 1.39562830e-01
      3.14297348e-01 2.14984939e-01 6.35696724e-02 3.14501897e-02
      5.03209420e-02 8.21716562e-02 1.16646171e-01 2.08779186e-01
      1.97649166e-01 2.13360652e-01 6.87018707e-02 5.69438823e-02
      2.65670754e-02 2.06602756e-02 3.14911976e-02 8.24419707e-02
      2.42509931e-01 2.82957792e-01 3.14297348e-01 3.14297348e-01
      1.96339354e-01 1.15754083e-01 7.04809204e-02 6.71872497e-02
      7.52845630e-02 1.17675856e-01 1.52237386e-01 2.47278735e-01
      1.24936059e-01 1.51518852e-01 7.55550563e-02 3.24099846e-02
      1.70499571e-02 4.02502231e-02 1.76486090e-01 3.14297348e-01
      2.26559296e-01 9.44935381e-02 5.62942140e-02 1.38509190e-02
      1.16812699e-02 1.20727029e-02 3.71649563e-02 1.39536589e-01
      2.73326933e-01 3.33805501e-01 2.01628074e-01 9.85970795e-02
      5.49450181e-02 4.57142442e-02 2.87889391e-02 7.33009577e-02
      1.57672033e-01 2.33455434e-01 3.06005090e-01 1.29931629e-01
      8.72485042e-02 2.80882940e-02 1.50242029e-02 1.27872573e-02
      2.85535902e-02 1.70450196e-01 3.33805501e-01 3.33805501e-01
      2.29286119e-01 1.26825631e-01 6.95156157e-02 4.60808612e-02
      4.84566800e-02 8.27695876e-02 1.28296554e-01 3.33805501e-01
      2.19176054e-01 1.82466507e-01 7.73623511e-02 3.74088101e-02
      4.90262955e-02 5.48839159e-02 9.03514624e-02 1.91228151e-01
      1.72861144e-01 2.56250292e-01 2.90243149e-01 1.63790420e-01
      4.28342335e-02 4.37758081e-02 4.74323370e-02 7.85030201e-02
      1.10017769e-01 1.38860717e-01 2.57876098e-01 2.01487690e-01
      1.32450595e-01 9.19714198e-02 6.39943779e-02 1.10033080e-01
      1.68644056e-01 1.22217596e-01 2.08371490e-01 2.27169588e-01
      2.90243149e-01 1.74047649e-01 1.19489431e-01 1.45449191e-01
      2.09726453e-01 2.90243149e-01 1.69572026e-01 1.15845159e-01
      1.83104187e-01 2.91686982e-01 2.05113754e-01 3.85373756e-02
      3.00503839e-02 1.83412619e-02 4.42705303e-02 4.20465320e-02
      7.68644065e-02 2.91686982e-01 2.91686982e-01 1.27007619e-01
      2.49233600e-02 2.47697588e-02 1.53688854e-02 2.69641113e-02
      1.13849968e-01 2.32893243e-01 1.84146628e-01 2.91686982e-01
      2.42430478e-01 1.28649846e-01 2.07796246e-01 1.37603551e-01
      2.03134179e-01 8.22364613e-02 5.58863096e-02 2.59981841e-01
      2.91686982e-01 1.91148460e-01 7.88412318e-02 1.39320195e-01
      6.46128505e-02 9.39475223e-02 9.10063311e-02 1.57019064e-01
      2.83514380e-01 2.12513477e-01 7.56911635e-02 4.42921631e-02
      4.16468382e-02 2.26910654e-02 8.69389027e-02 2.21702009e-01
      2.86651880e-01 1.65287286e-01 2.34024316e-01 1.44412771e-01
      7.69510940e-02 8.46875980e-02 6.09806813e-02 1.28180027e-01
      1.42223656e-01 1.28274649e-01 2.14641154e-01 1.78261310e-01
      5.93875535e-02 7.69280046e-02 6.14473410e-02 2.74935700e-02
      1.35183513e-01 2.61912227e-01 2.86651880e-01 1.49086237e-01
      2.65672207e-01 1.49054006e-01 1.49933159e-01 1.24689877e-01
      6.50292560e-02 1.08651131e-01 1.94381788e-01 2.86651880e-01
      2.00503320e-01 2.21530125e-01 1.10249333e-01 7.16953650e-02
      6.31030649e-02 5.98233417e-02 6.78855181e-02 7.97775462e-02
      9.29107293e-02 1.90201581e-01 1.83613583e-01 4.74395566e-02
      9.10925418e-02 7.10838810e-02 7.89704695e-02 2.29613170e-01
      3.10329556e-01 3.04646432e-01 1.43177152e-01 2.90182680e-01
      1.61742985e-01 1.49385646e-01 7.73407444e-02 6.93001896e-02
      5.56463189e-02 6.96156770e-02 1.18813075e-01 1.67843819e-01
      2.24438384e-01 9.61540267e-02 1.65296137e-01 4.23450731e-02
      8.26238021e-02 2.42750540e-01 3.10329556e-01 2.54176766e-01
      5.98793849e-02 5.16350344e-02 1.18861226e-02 3.06818448e-02
      4.12554741e-02 4.76419292e-02 2.41376817e-01 3.31872612e-01
      2.74730742e-01 1.03203021e-01 2.83221882e-02 1.80360135e-02
      2.07033660e-02 2.29366813e-02 9.31679234e-02 2.17151865e-01
      3.31872612e-01 2.08261281e-01 6.82595521e-02 6.15129732e-02
      2.93232203e-02 5.98583817e-02 3.28133814e-02 4.97748442e-02
      2.71460295e-01 3.31872612e-01 2.18345881e-01 1.39357820e-01
      1.18849315e-02 3.12916711e-02 2.00414751e-02 2.04402544e-02
      4.47930321e-02 1.66814804e-01 3.31872612e-01 3.31872612e-01
      2.27215484e-01 1.33659586e-01 1.22220397e-01 7.23591521e-02
      3.49451303e-02 1.28989041e-01 1.75146326e-01 2.04508230e-01
      1.65202320e-01 2.93085247e-01 1.61756337e-01 1.65783316e-01
      9.03601125e-02 4.94262241e-02 6.09136075e-02 8.09717178e-02
      7.20893294e-02 1.69185400e-01 2.35746831e-01 5.83755672e-02
      7.03530386e-02 3.04834340e-02 3.32675353e-02 3.40688601e-02
      8.35108981e-02 3.22076440e-01 3.22076440e-01 2.48190925e-01
      1.55121535e-01 7.47601241e-02 2.86821369e-02 4.75342833e-02
      2.79880036e-02 1.05206400e-01 3.22076440e-01 3.22076440e-01
      2.59223849e-01 1.37113407e-01 8.04266036e-02 3.71956341e-02
      3.77859101e-02 5.80006205e-02 6.68436214e-02 6.36242256e-02
      1.31382048e-01 2.04530805e-01 1.57506615e-01 8.39885622e-02
      8.04645419e-02 4.36361842e-02 6.77605867e-02 1.19466133e-01
      2.73575157e-01 1.98539674e-01 3.16520274e-01 3.32267523e-01
      8.36626813e-02 2.22567338e-02 4.01354358e-02 5.61675802e-02
      8.15020502e-02 1.55329570e-01 1.44836590e-01 3.10811073e-01
      3.32267523e-01 2.50680715e-01 2.39407733e-01 1.21307895e-01
      1.26044959e-01 5.67254946e-02 5.94264902e-02 1.33991331e-01
      1.75820261e-01 8.42034742e-02 4.48951311e-02 5.89734390e-02
      2.15733666e-02 3.99580076e-02 9.58467200e-02 2.98941612e-01
      2.98941612e-01 1.99748248e-01 1.72912255e-01 1.10847220e-01
      7.79428855e-02 3.79445814e-02 4.72487919e-02 8.94525945e-02
      2.98941612e-01 2.98941612e-01 1.73100218e-01 1.75710022e-01
      1.60158068e-01 2.34029636e-01 7.74709135e-02 6.68534562e-02
      5.75778149e-02 1.77942947e-01 2.32467741e-01 1.94906950e-01
      1.14045948e-01 6.28422648e-02 6.19040728e-02 2.81240586e-02
      3.40504423e-02 6.89976364e-02 2.98941612e-01 2.98941612e-01
      1.50802821e-01 2.17487246e-01 1.89445674e-01 7.60044083e-02
      4.89732660e-02 5.46093620e-02 7.99062327e-02 1.72008157e-01
      2.79739022e-01 1.46309391e-01 2.60550499e-01 1.68955654e-01
      7.18322098e-02 5.46785705e-02 8.50004107e-02 1.03721812e-01
      1.69552818e-01 2.34762087e-01 2.36248553e-01 2.66239703e-01
      1.62187606e-01 1.99025162e-02 2.11199615e-02 3.84716503e-02
      5.45147546e-02 1.92845166e-01 2.97973365e-01 9.34174284e-02
      2.59398073e-01 1.86069191e-01 7.89057612e-02 6.74309283e-02
      1.90001190e-01 1.90146312e-01 2.24598080e-01 9.68942866e-02
      2.16265842e-02 3.02516501e-02 2.08788943e-02 3.48991081e-02
      3.88571918e-02 6.57391250e-02 2.55677819e-01 1.55460715e-01
      3.74401473e-02 2.17745379e-02 5.66181680e-03 9.67962202e-03
      2.51342990e-02 1.06915295e-01 4.31084454e-01 4.31084454e-01
      3.07243466e-01 4.18693759e-02 1.14783905e-02 2.18462367e-02
      2.30513494e-02 4.48022634e-02 5.49046025e-02 7.80850649e-02
      8.81457999e-02 5.61427921e-02 3.70855443e-02 3.61574218e-02
      1.39414631e-02 2.68760528e-02 5.06492369e-02 1.58903271e-01
      4.31084454e-01 4.05523449e-01 7.92874172e-02 6.50937632e-02
      6.91970272e-05 4.71143518e-03 8.09928179e-02 4.14208859e-01
      4.14208859e-01 3.46963853e-01 4.39710245e-02 8.93600285e-03
      2.70608300e-03 7.74367899e-03 1.07961763e-02 6.37787431e-02
      1.30266801e-01 1.17972940e-01 7.17621818e-02 2.60250773e-02
      7.69637004e-02 4.24018055e-02 3.49461124e-03 9.72637208e-04
      7.63165345e-03 6.61085397e-02 4.14208859e-01 4.14208859e-01
      2.20526055e-01 5.85298846e-03 5.44135645e-03 4.77409642e-03
      4.02166089e-03 1.72190946e-02 7.16878772e-02 1.76837340e-01
      1.92199871e-01 6.09382950e-02 3.25606614e-02 1.79460961e-02
      6.88118264e-02 6.06446862e-02 1.45740747e-01 3.31956595e-01
      1.76396981e-01 8.40473697e-02 1.04652174e-01 3.27726692e-01
      1.91839084e-01 1.56967819e-01 7.03403354e-02 7.92378113e-02
      1.67242900e-01 1.04211509e-01 9.22438130e-02 1.75344110e-01
      1.91479534e-01 1.23608716e-01 2.84469333e-02 1.89321749e-02
      5.67702055e-02 1.67193905e-01 1.79384634e-01 1.36996761e-01
      1.49303108e-01 1.56825393e-01 9.88867730e-02 2.17219666e-01
      1.73650935e-01 1.15369231e-01 1.35682851e-01 1.51207685e-01
      1.23457551e-01 3.17614257e-01 1.98137850e-01 2.65226334e-01
      1.73611164e-01 1.08941905e-01 4.79980744e-02 7.36575946e-02
      3.95835899e-02 6.03663884e-02 1.63728237e-01 1.78596422e-01
      9.33802128e-02 2.17771500e-01 2.28817046e-01 7.06447363e-02
      1.05521508e-01 5.25237843e-02 8.09606910e-02 3.18078369e-01
      3.39272350e-01 8.29471424e-02 1.76085517e-01 1.84022859e-01
      1.01925887e-01 1.18363820e-01 5.43847680e-02 7.97785819e-02
      2.34687269e-01 2.20430315e-01 1.51802003e-01 1.06651954e-01
      9.88606885e-02 6.07721582e-02 8.41737315e-02 2.16928013e-02
      9.19330418e-02 3.39272350e-01 3.39272350e-01 1.71736822e-01
      1.36313200e-01 1.58240885e-01 9.81525108e-02 6.11444265e-02
      4.98535261e-02 5.34668490e-02 2.10044846e-01 2.92878956e-01
      9.93768275e-02 1.09559409e-01 9.06815827e-02 8.34808350e-02
      4.57076021e-02 4.32838798e-02 2.21703481e-02 6.10105395e-02
      1.40169546e-01 1.90136552e-01 8.32239389e-02 5.24000712e-02
      3.43654454e-02 3.24649736e-02 2.54996270e-02 5.19167408e-02
      3.84411931e-01 3.94352078e-01 3.31095219e-01 1.42858222e-01
      9.00807753e-02 3.63723785e-02 2.69882958e-02 7.69487619e-02
      6.48563206e-02 1.45947099e-01 3.94352078e-01 2.38955528e-01
      1.61800861e-01 1.40940621e-01 1.19763874e-01 5.17993867e-02
      6.12533875e-02 4.42908853e-02 3.16422172e-02 1.06832355e-01
      2.45840445e-01 2.78654337e-01 2.84990191e-01 2.58491635e-01
      1.32536069e-01 9.94872674e-02 7.99180418e-02 5.87829500e-02
      1.49716303e-01 2.27589041e-01 1.31853327e-01 1.53965190e-01
      9.63399485e-02 4.63786498e-02 1.33448318e-01 1.10729724e-01
      9.32554007e-02 1.68612123e-01 9.58592519e-02 2.34598145e-01
      3.04116935e-01 2.72127867e-01 1.39808655e-01 1.37675181e-01
      1.00497827e-01 7.13796988e-02 2.34512135e-01 2.42786705e-01
      9.72755924e-02 1.13940813e-01 1.19167782e-01 8.57895091e-02
      6.13483861e-02 9.33005065e-02 1.56547800e-01 1.89961717e-01
      1.30829707e-01 1.62325531e-01 1.93537116e-01 8.08131471e-02
      1.03007630e-01 1.17195830e-01 1.64787188e-01 3.13739866e-01
      2.32054844e-01 1.85093731e-01 1.05879210e-01 1.05806202e-01
      1.10207267e-01 6.00052066e-02 4.83181030e-02 4.42870744e-02
      9.69838426e-02 3.21195543e-01 3.21195543e-01 1.13170803e-01
      8.37614387e-02 4.45659831e-02 4.53964286e-02 4.59093340e-02
      6.65615276e-02 2.43515417e-01 3.21195543e-01 3.21195543e-01
      2.25374669e-01 2.99171686e-01 1.25552520e-01 1.44110113e-01
      2.01398417e-01 1.21351391e-01 1.60284400e-01 1.51898786e-01
      1.06987193e-01 2.43883222e-01 2.38339797e-01 1.14834748e-01
      1.09459735e-01 1.30983219e-01 6.20469116e-02 6.53831735e-02
      9.08164009e-02 7.70697966e-02 1.37686074e-01 1.83674410e-01
      7.86959380e-02 9.87739861e-02 1.12185650e-01 9.61379707e-02
      2.86887169e-01 2.99171686e-01 2.22764224e-01 2.01398447e-01
      1.50765583e-01 1.21534914e-01 1.43239617e-01 9.64612290e-02
      1.14593334e-01 1.44494325e-01 2.41221592e-01 1.08517058e-01
      2.70028800e-01 2.05055669e-01 8.89404938e-02 7.80324116e-02
      5.76813705e-02 3.21701132e-02 1.05824448e-01 1.91365466e-01
      3.24921727e-01 2.30085835e-01 3.00631970e-01 9.34164524e-02
      9.63479802e-02 8.49419534e-02 6.58217296e-02 8.23651403e-02
      2.06952453e-01 3.45052421e-01 2.38903940e-01 9.97299999e-02
      9.23570916e-02 9.09702629e-02 8.45215395e-02 1.16244100e-01
      1.08115040e-01 1.55826330e-01 2.18648419e-01 2.17982903e-01
      7.22433478e-02 1.89215690e-02 3.79467756e-02 9.23387408e-02
      1.05034508e-01 8.81654248e-02 1.35496974e-01 2.82483995e-01
      1.67237476e-01 3.28936130e-01 1.43771529e-01 1.50574759e-01
      6.97058588e-02 9.13858116e-02 1.46925852e-01 1.96238413e-01
      2.44907022e-01 1.46014422e-01 1.49707064e-01 1.18764162e-01
      1.52663261e-01 5.59907183e-02 6.37336969e-02 2.21474260e-01
      3.37794185e-01 2.07289726e-01 2.61004835e-01 9.91101936e-02
      2.87638754e-02 5.23492508e-02 5.71960583e-02 9.89948288e-02
      1.69693068e-01 2.00221702e-01 2.38939479e-01 1.80284128e-01
      7.90144205e-02 8.28115940e-02 7.18347505e-02 8.12430605e-02
      4.63920571e-02 1.75457060e-01 2.43713349e-01 1.35846272e-01
      1.32152483e-01 5.81429675e-02 5.77485748e-02 6.35081306e-02
      4.80972640e-02 3.47961895e-02 1.76412314e-01 4.20850813e-01
      2.60026008e-01 3.56937379e-01 4.37646098e-02 1.07129402e-01
      4.35519703e-02 3.10995672e-02 3.82388718e-02 1.35361239e-01
      4.20850813e-01 4.20850813e-01 1.08193614e-01 4.74762917e-02
      6.50488958e-02 5.07795289e-02 6.70991838e-02 3.05222459e-02
      5.32709546e-02 1.40925229e-01 1.48664817e-01 1.68392032e-01
      8.81185085e-02 8.99042562e-02 5.84127940e-02 7.23502859e-02
      5.40163219e-02 3.91725525e-02 1.04715675e-01 1.76811084e-01
      2.13401794e-01 4.43599895e-02 7.16445670e-02 2.93633118e-02
      1.43538741e-02 1.29178045e-02 6.79596290e-02 3.62291992e-01
      3.62291992e-01 2.77248979e-01 2.27777243e-01 6.80478439e-02
      1.86049026e-02 1.39168762e-02 1.54679976e-02 2.04053208e-01
      3.62291992e-01 3.62291992e-01 1.01109833e-01 1.06419906e-01
      1.00664288e-01 3.71147655e-02 3.80903035e-02 3.10171191e-02
      3.75882834e-02 9.89905000e-02 9.68272835e-02 1.55742005e-01
      2.20913023e-01 1.11849353e-01 4.80252504e-02 4.51141708e-02
      6.01435788e-02 1.21809058e-01 2.17544168e-01 1.59113392e-01
      3.20687830e-01 3.20687830e-01 6.85695484e-02 1.18416566e-02
      1.79865267e-02 1.22584431e-02 7.72842243e-02 1.66837692e-01
      1.72401518e-01 3.20687830e-01 3.20687830e-01 1.69950664e-01
      1.01171948e-01 5.01023643e-02 3.31144072e-02 1.32577103e-02
      5.60374893e-02 1.29270852e-01 1.86193541e-01 2.23792300e-01
      5.52080534e-02 3.76602113e-02 6.02623932e-02 2.73301452e-02
      6.42241016e-02 1.64326027e-01 1.45721421e-01 3.20687830e-01
      2.70859987e-01 6.57626539e-02 2.05142796e-02 6.24167286e-02
      2.43569519e-02 3.92134152e-02 2.40563229e-01 2.51052529e-01
      2.52528578e-01 2.69585431e-01 1.62736118e-01 1.98267534e-01
      6.04034588e-02 3.79849114e-02 5.26165366e-02 2.09630489e-01
      2.05951303e-01 1.67398781e-01 1.09439418e-01 6.30213618e-02
      7.97126964e-02 3.03877462e-02 2.44274698e-02 8.52285847e-02
      2.42075011e-01 3.18077832e-01 3.18537205e-01 1.90024853e-01
      7.70312622e-02 5.99136166e-02 5.59963360e-02 2.14235298e-02
      7.30748773e-02 2.95999944e-01 3.10962975e-01 9.61047709e-02
      6.21118210e-02 7.38376901e-02 9.13617164e-02 5.39336614e-02
      1.14789177e-02 1.08732022e-01 2.70918608e-01 1.61161721e-01
      2.02937514e-01 1.56562537e-01 6.47914186e-02 1.83050241e-02
      2.13313252e-02 3.22384164e-02 9.46457759e-02 2.17461690e-01
      2.58896470e-01 9.22444463e-02 8.11373666e-02 5.46323992e-02
      4.52110171e-02 4.06684168e-02 1.33414492e-01 3.23496312e-01
      3.71150285e-01 1.80328161e-01 7.66081139e-02 4.09562103e-02
      3.91198732e-02 2.62307730e-02 2.62581464e-02 1.88396610e-02
      1.40113920e-01 2.83093244e-01 1.73525333e-01 9.60453600e-02
      3.14223468e-02 2.06814073e-02 2.64351070e-02 2.72182915e-02
      5.35401143e-02 3.58325928e-01 3.71150285e-01 2.54969478e-01
      3.41849178e-02 3.42958458e-02 3.69997472e-02 5.96725568e-02
      6.74376711e-02 8.96988511e-02 1.86950669e-01 1.63588747e-01
      9.66344401e-02 6.32683709e-02 8.07292089e-02 1.37035042e-01
      2.06153676e-01 3.56238693e-01 3.56238693e-01 1.24224037e-01
      7.15068579e-02 1.02788627e-01 8.52970630e-02 6.84474856e-02
      4.34394740e-02 6.58242032e-02 4.39309813e-02 2.51371898e-02
      1.62841111e-01 2.23368704e-01 1.46406889e-01 1.30496040e-01
      1.54901952e-01 3.28767002e-01 3.56238693e-01 3.56238693e-01
      7.26535767e-02 4.60715629e-02 5.78374751e-02 1.28624186e-01
      4.18536831e-03 2.43631913e-03 7.32524088e-03 9.28688236e-03
      1.96396306e-01 3.90484780e-01 3.90484780e-01 2.06930507e-02
      4.55678161e-03 4.91642300e-03 3.06683220e-03 4.76791151e-03
      1.75127033e-02 6.14208467e-02 1.81113243e-01 1.96210966e-01
      2.43806224e-02 7.41587812e-03 1.69262737e-02 5.53603191e-03
      1.70325674e-02 1.30007754e-03 6.75078630e-02 3.90484780e-01
      3.90484780e-01 1.32772282e-01 1.70552824e-02 3.21801566e-03
      1.71643612e-03 3.14233429e-03 4.12262697e-03 1.90351792e-02
      1.75453529e-01 3.90484780e-01 2.53210992e-01 7.04730023e-03
      4.16813530e-02 1.75159145e-02 2.39299349e-02 5.82533367e-02
      1.08739071e-01 1.77277058e-01 1.73873261e-01 1.05745070e-01
      9.09302011e-02 1.31227881e-01 1.14335150e-01 5.57122007e-02
      5.01786694e-02 8.57760012e-02 9.80493724e-02 1.44288763e-01
      1.18797570e-01 2.03569978e-01 4.34578136e-02 2.01434977e-02
      1.21769672e-02 1.57619901e-02 5.52955121e-02 2.26828888e-01
      4.96026576e-01 4.96026576e-01 1.41324595e-01 1.49820164e-01
      1.43326700e-01 5.59029691e-02 5.09508587e-02 5.85596636e-02
      6.79299384e-02 1.98967010e-01 2.69363344e-01 1.69374436e-01
      1.46777526e-01 1.81494251e-01 1.00600436e-01 8.69679824e-02
      4.01461758e-02 6.63694516e-02 1.05887718e-01 1.08333588e-01
      1.66768104e-01 1.34513423e-01 1.27170712e-01 1.50656804e-01
      1.05394743e-01 2.93221772e-02 1.11268096e-01 2.38628715e-01
      3.17161083e-01 2.33048111e-01 2.63503939e-01 2.59245157e-01
      1.04112998e-01 7.50204548e-02 4.12968248e-02 4.31385115e-02
      5.79721071e-02 8.41098428e-02 1.07651234e-01 3.17161083e-01
      2.20084667e-01 1.66449934e-01 7.31817707e-02 4.77102287e-02
      8.67255032e-02 1.43685147e-01 3.17161083e-01 2.87930667e-01
      1.15952432e-01 5.88000007e-02 6.59948811e-02 3.90811786e-02
      2.11324431e-02 3.29079032e-02 1.50510475e-01 3.32751274e-01
      2.25191817e-01 1.94173530e-01 8.51989239e-02 3.17402221e-02
      8.76456685e-03 4.65837233e-02 6.67381957e-02 1.76738113e-01
      3.32751274e-01 2.25096121e-01 1.24009214e-01 5.34804203e-02
      6.73890635e-02 2.99677160e-02 3.51368040e-02 5.32878116e-02
      2.56769210e-01 3.32751274e-01 1.66820765e-01 1.65667713e-01
      5.82523905e-02 2.84114704e-02 1.86545663e-02 4.39655110e-02
      7.78620392e-02 3.32751274e-01 3.32751274e-01 2.22041607e-01
      1.73092052e-01 1.26989409e-01 4.29551713e-02 1.30800325e-02
      9.21903849e-02 1.48530185e-01 1.73965648e-01 2.67281741e-01
      1.66292608e-01 1.41509593e-01 1.34028181e-01 7.55361691e-02
      3.58808897e-02 6.62050545e-02 8.25735629e-02 7.37493783e-02
      1.21175796e-01 1.79814279e-01 1.78868830e-01 9.37232971e-02
      5.18215112e-02 2.97940224e-02 6.62055239e-02 1.23803936e-01
      3.54334831e-01 3.54334831e-01 3.54334831e-01 1.73494324e-01
      1.24330640e-01 1.00157589e-01 4.06898409e-02 5.34964614e-02
      7.63443410e-02 1.36663914e-01 2.93579817e-01 2.61298627e-01
      1.20761238e-01 9.61767212e-02 6.61175102e-02 2.97341794e-02
      2.72595547e-02 2.28464585e-02 5.20947762e-02 1.95232779e-01
      2.84440517e-01 1.62814066e-01 9.05615166e-02 4.59373817e-02
      2.83831134e-02 7.52999410e-02 9.91420746e-02 1.90478072e-01
      3.33374470e-01 3.33374470e-01 2.30384901e-01 1.75821081e-01
      1.18483312e-01 8.79850686e-02 9.48918313e-02 7.81518519e-02
      5.95110618e-02 8.28528181e-02 1.32379130e-01 3.33374470e-01
      1.91709578e-01 1.43671259e-01 9.86103639e-02 1.33670881e-01
      1.43479630e-01 8.90570953e-02 2.19777539e-01 3.33374470e-01
      1.14199169e-01 5.44991046e-02 7.48994648e-02 7.62742236e-02
      1.67867467e-01 1.66344374e-01 1.93672538e-01 2.49332771e-01
      1.89752832e-01 1.83749080e-01 8.88587758e-02 1.05145238e-01
      1.22066751e-01 1.36280105e-01 1.66203171e-01 1.37891591e-01
      1.98628828e-01 2.11302608e-01 2.88204312e-01 7.99875557e-02
      7.26740137e-02 5.63846342e-02 1.04752608e-01 1.24398060e-01
      6.01621009e-02 2.27685213e-01 2.88204312e-01 2.44290382e-01
      9.44468230e-02 5.65451197e-02 8.38142708e-02 1.03505947e-01
      1.38966128e-01 1.52847797e-01 2.88204312e-01 2.88204312e-01
      2.04817057e-01 6.81503490e-02 6.32534251e-02 7.66334385e-02
      6.17744774e-02 1.10907800e-01 1.37701198e-01 2.53984690e-01
      2.76263088e-01 1.90774560e-01 5.04624061e-02 1.48861408e-02
      4.16103564e-02 5.84064312e-02 6.70373663e-02 7.76200816e-02
      1.45829141e-01 2.42260382e-01 1.86859310e-01 8.72872174e-02
      3.90983187e-02 7.46657178e-02 9.96710882e-02 1.67300493e-01
      2.60728776e-01 3.22038710e-01 3.00536543e-01 1.65449023e-01
      8.80697072e-02 1.63703375e-02 5.25215752e-02 6.15211986e-02
      8.87898728e-02 1.51028320e-01 3.22038710e-01 3.22038710e-01
      2.24287525e-01 7.15478733e-02 1.26921227e-02 4.75694761e-02
      5.69343530e-02 1.12321675e-01 9.98232663e-02 1.72303885e-01
      2.75151879e-01 1.12751380e-01 5.26503809e-02 3.19167413e-02
      2.88560111e-02 6.37003481e-02 7.49201402e-02 1.05149932e-01
      1.35501206e-01 1.09595180e-01 2.08554134e-01 1.97887987e-01
      3.50437760e-02 6.26384914e-02 9.51734409e-02 8.02317113e-02
      1.51173636e-01 4.08094019e-01 4.08094019e-01 2.63550818e-01
      2.23029211e-01 6.86891750e-02 5.69950901e-02 1.28282860e-01
      9.29331109e-02 1.50198489e-01 2.31304333e-01 2.25526556e-01
      1.48218215e-01 8.73219520e-02 5.73199280e-02 7.46026412e-02
      6.65146261e-02 6.45745620e-02 5.76824211e-02 1.23742968e-01
      1.58501223e-01 2.14745358e-01 1.59623340e-01 1.14773996e-01
      1.19999982e-01 1.24552377e-01 6.00813739e-02 3.99320833e-02
      1.50050223e-01 1.85431182e-01 4.58621055e-01 2.81303048e-01
      6.92419484e-02 7.74570927e-02 6.75058812e-02 7.24309385e-02
      8.56892467e-02 9.07436758e-02 1.93391472e-01 4.53416914e-01
      2.08982617e-01 1.02037743e-01 1.27227232e-01 1.13092825e-01
      3.54238227e-02 4.33798321e-02 1.91952556e-01 1.90042123e-01
      1.83342144e-01 2.16434315e-01 1.92196265e-01 1.01517379e-01
      1.24586485e-01 5.45886643e-02 4.16568257e-02 1.16042033e-01
      1.51818737e-01 1.21336393e-01 1.88844487e-01 1.75057754e-01
      1.10967614e-01 1.09370805e-01 1.28972933e-01 2.38723010e-01
      2.57729709e-01 1.66529417e-01 1.98451921e-01 2.71452963e-01
      2.03382581e-01 1.28313512e-01 1.02169573e-01 1.79909244e-02
      3.05417031e-02 1.68609500e-01 1.81016728e-01 1.22966826e-01
      3.11198294e-01 2.25514814e-01 1.76939279e-01 8.60165283e-02
      3.56705002e-02 1.49737865e-01 2.01104015e-01 1.69341281e-01
      6.43422604e-02 7.80385062e-02 4.27166633e-02 6.31015971e-02
      8.98389593e-02 7.37953708e-02 2.05546319e-01 3.72450292e-01
      1.55128732e-01 3.55923682e-01 1.21941634e-01 3.51264998e-02
      3.01327351e-02 8.43058154e-02 4.12087254e-02 1.58053532e-01
      4.11036968e-01 3.76501203e-01 6.24601692e-02 8.23124051e-02
      6.83882013e-02 8.07518363e-02 7.22308606e-02 2.48500519e-02
      1.28142193e-01 1.91625461e-01 1.09627947e-01 1.91429287e-01
      5.66626228e-02 7.97506794e-02 8.59576836e-02 7.65211955e-02
      1.11606726e-02 1.33904234e-01 2.15373456e-01 2.37389356e-01
      3.24969441e-01 1.13323122e-01 6.40165061e-02 5.39945439e-02
      5.31695224e-02 1.74768586e-02 1.18483000e-01 2.77650952e-01
      3.31410170e-01 1.52778298e-01 7.03505352e-02 7.29430690e-02
      8.10926259e-02 6.38650656e-02 2.60783397e-02 1.45603910e-01
      2.84966379e-01 2.52614230e-01 2.32817486e-01 5.45731895e-02
      4.75198627e-02 5.38768880e-02 4.78899069e-02 1.87749006e-02
      1.77915096e-01 2.10314333e-01 2.99473494e-01 2.39410028e-01
      1.65943101e-01 9.56782699e-02 3.88046354e-02 3.65951844e-02
      3.46317962e-02 1.46196350e-01 1.58470273e-01 2.83500463e-01
      6.68358877e-02 4.37219888e-02 4.18960750e-02 2.47871112e-02
      2.27705333e-02 2.60013491e-02 1.35366052e-01 2.17376843e-01
      1.60088882e-01 8.99133906e-02 7.34726563e-02 7.18763247e-02
      6.12752214e-02 5.95844835e-02 4.53184173e-02 1.98089823e-01
      4.11927611e-01 2.37929240e-01 1.56065002e-01 1.89501941e-01
      1.38026655e-01 6.31109625e-02 2.58778073e-02 1.79352704e-02
      6.98575079e-02 7.12354928e-02 1.05523542e-01 1.69238478e-01
      4.11927611e-01 4.11927611e-01 2.80776352e-01 1.11635670e-01
      2.69325767e-02 4.83508222e-02 1.45569414e-01 1.10681325e-01
      2.44457889e-02 2.45188847e-02 2.82962974e-02 2.90550813e-02
      1.67271681e-02 7.88493827e-03 1.85207315e-02 4.80661169e-02
      3.42316069e-02 4.38091978e-02 4.86333854e-02 4.07145321e-01
      4.26426500e-01 6.08453974e-02 1.22337313e-02 5.92594827e-03
      1.16152456e-02 3.74822058e-02 3.87866162e-02 1.40711948e-01
      4.26426500e-01 7.60695934e-02 2.91579999e-02 8.06848425e-03
      3.40259750e-03 1.99338198e-02 1.13451155e-02 4.39467318e-02
      2.18158141e-01 4.26426500e-01 4.26426500e-01 8.51571262e-02
      9.20943730e-03 2.23842170e-03 6.62806630e-03 2.09559947e-02
      3.06116492e-02 2.10970105e-03 6.17283070e-03 3.25924018e-04
      7.12845996e-02 7.73850828e-02 4.13124532e-01 1.77137762e-01
      4.58315983e-02 9.86847281e-03 2.05096765e-03 4.20296099e-03
      8.01179500e-04 2.47185677e-02 6.05006814e-02 4.13124532e-01
      4.13124532e-01 3.35530639e-02 4.03160714e-02 9.58700944e-03
      1.10388733e-02 4.18043137e-03 4.95922677e-02 3.19113806e-02
      1.96100041e-01 1.43209398e-01 9.25649032e-02 4.38546054e-02
      1.92345157e-02 4.60257567e-02 8.52461625e-03 3.42945457e-02
      4.13211770e-02 4.13124532e-01 4.13124532e-01 1.05991140e-01
      4.40075668e-03 3.33274528e-03 2.95694568e-03 2.36668333e-04
      3.12050548e-03 1.03034973e-02 3.95398021e-01 3.95398021e-01
      3.44274901e-02 1.98045690e-02 1.45325372e-02 5.91102755e-03
      1.09228231e-02 1.29144667e-02 1.12676872e-02 1.11096248e-01
      2.71455467e-01 2.86083352e-02 3.35982479e-02 8.50526243e-03
      3.03436145e-02 9.87847429e-03 2.60557812e-02 8.91242549e-03
      3.95398021e-01 3.95398021e-01 1.06527366e-01 4.16037068e-02
      4.14525717e-03 5.17714862e-03 7.23007275e-03 1.85380392e-02
      1.04371766e-02 2.90908813e-01 3.95398021e-01 1.54524550e-01
      1.00149624e-01 6.84147626e-02 2.18159482e-02 3.40298936e-02
      2.32998785e-02 2.73169074e-02 1.01344824e-01 1.86196864e-01
      4.30146866e-02 1.01397924e-01 5.41186593e-02 1.69267021e-02
      1.05284825e-02 6.79623010e-03 1.58838388e-02 8.00556168e-02
      2.31911570e-01 1.51812091e-01 6.60860166e-02 1.66447852e-02
      5.97767811e-03 1.48411086e-02 1.18162958e-02 3.14625688e-02
      2.44600847e-01 4.46726143e-01 3.86943460e-01 9.14123580e-02
      1.76764298e-02 9.04769730e-03 6.85935467e-03 2.96652783e-03
      1.64396055e-02 1.03028439e-01 4.46726143e-01 4.46726143e-01
      4.48101349e-02 2.31878869e-02 1.79321729e-02 2.16303319e-02
      1.63628161e-02 3.97577211e-02 2.44244531e-01 3.23214859e-01
      2.18034610e-01 2.21986473e-02 1.72447003e-02 1.17611494e-02
      4.00272347e-02 3.91931199e-02 8.48399773e-02 3.23214859e-01
      3.23214859e-01 1.08067960e-01 1.45402223e-01 6.40275553e-02
      4.21249643e-02 8.11957344e-02 1.69251561e-02 3.71402912e-02
      1.71999052e-01 3.23214859e-01 3.23214859e-01 1.01611882e-01
      8.25151354e-02 4.18716073e-02 1.26422957e-01 6.15906753e-02
      1.06945790e-01 2.91297585e-01 3.14911515e-01 2.00319514e-01
      7.57019669e-02 3.11646871e-02 2.75326241e-02 4.58926260e-02
      5.68168536e-02 1.13057405e-01 2.81873375e-01 2.81873375e-01
      1.97124869e-01 2.27845147e-01 9.53202769e-02 6.45687655e-02
      5.21617010e-02 4.57304455e-02 5.74763119e-02 1.22286022e-01
      2.37819389e-01 2.06806570e-01 1.21656492e-01 6.91445395e-02
      3.60085219e-02 1.08536169e-01 2.19226718e-01 2.61243194e-01
      2.81873375e-01 1.96866393e-01 1.13458313e-01 2.28501529e-01
      7.52878636e-02 5.35345189e-02 1.11559972e-01 2.21413299e-01
      2.13512272e-01 1.58605874e-01 2.37094373e-01 2.38865554e-01
      2.39718109e-01 1.50881633e-01 9.22758207e-02 1.00560643e-01
      8.59834030e-02 6.77316636e-02 1.04121804e-01 1.86570719e-01
      1.47735521e-01 2.42479011e-01 9.91467461e-02 8.92580375e-02
      8.69452134e-02 9.10643935e-02 1.05044670e-01 1.63616851e-01
      3.16041827e-01 3.16041827e-01 2.12060139e-01 1.08283728e-01
      6.10032342e-02 8.05086792e-02 9.51697677e-02 6.40686601e-02
      1.02281123e-01 2.29398549e-01 2.47630492e-01 1.81457192e-01
      1.36744037e-01 9.99043211e-02 4.57212888e-02 4.56076264e-02
      4.05740924e-02 1.40162542e-01 3.16041827e-01 3.11602354e-01
      1.43249810e-01 2.84386836e-02 2.64111403e-02 1.70103833e-02
      1.62793417e-02 5.20705543e-02 1.44291401e-01 3.12388033e-01
      3.12388033e-01 9.79583859e-02 4.27673683e-02 1.40177421e-02
      4.99602482e-02 6.94007576e-02 1.11870006e-01 2.05855206e-01
      3.12388033e-01 2.95419663e-01 8.81180316e-02 6.79572821e-02
      4.88345288e-02 2.83404347e-02 2.04088446e-02 5.22429608e-02
      2.79816777e-01 3.12388033e-01 1.93387970e-01 8.13378245e-02
      6.47563860e-02 3.00886743e-02 7.16582388e-02 8.33080262e-02
      1.51182652e-01 3.12388033e-01 3.12388033e-01 1.51958078e-01
      1.01131491e-01 4.35299315e-02 1.55121367e-02 4.27636057e-02
      6.00496307e-02 9.23009962e-02 1.45476356e-01 3.19480747e-01
      2.48812556e-01 1.66035101e-01 6.48719147e-02 5.24960458e-02
      4.09609005e-02 1.44227408e-02 3.91432568e-02 1.10687450e-01
      3.19480747e-01 3.19480747e-01 1.24500021e-01 7.33893216e-02
      3.92053314e-02 4.29084562e-02 5.53618856e-02 8.13141689e-02
      1.44871786e-01 3.19480747e-01 3.03351253e-01 2.01057628e-01
      8.77105743e-02 8.82901475e-02 6.16574734e-02 3.96174565e-02
      5.79775535e-02 1.14951774e-01 3.19480747e-01 3.19480747e-01
      1.67836785e-01 1.49895370e-01 1.12505116e-01 8.67414773e-02
      2.46948730e-02 5.15939407e-02 1.22731961e-01 3.16518039e-01
      3.16518039e-01 2.08767503e-01 1.49133369e-01 9.25317779e-02
      7.97017962e-02 4.69259284e-02 6.97836503e-02 9.15623009e-02
      1.37276009e-01 2.26582870e-01 2.24001721e-01 2.23452210e-01
      1.90492615e-01 1.35032296e-01 4.11488041e-02 6.57239780e-02
      1.09934911e-01 2.42327347e-01 2.72316486e-01 2.65342742e-01
      2.67972022e-01 1.18726261e-01 8.62032399e-02 2.11205110e-02
      5.86401895e-02 8.84276181e-02 1.23468794e-01 2.11279750e-01
      3.29482257e-01 1.60929322e-01 8.70761946e-02 1.50033772e-01
      7.95900822e-02 1.18962355e-01 1.14375837e-01 8.86566564e-02
      2.08074138e-01 2.46338174e-01 9.91231352e-02 6.09016232e-02
      1.20757796e-01 9.57335457e-02 7.02606067e-02 7.91005492e-02
      1.53105229e-01 1.06450528e-01 3.19744319e-01 1.55395523e-01
      8.53260234e-02 1.53009281e-01 7.51143470e-02 1.27981693e-01
      1.69102326e-01 2.10733086e-01 3.54674488e-01 1.88623428e-01
      6.40943199e-02 6.79118633e-02 9.33221653e-02 1.03554241e-01
      1.40687108e-01 1.25258729e-01 2.76751697e-01 2.21742436e-01
      2.01706171e-01 1.82183757e-01 1.37231946e-01 8.71956348e-02
      8.88375342e-02 3.86892296e-02 4.01961170e-02 1.36351302e-01
      1.28891394e-01 1.95466995e-01 2.92820394e-01 1.98983684e-01
      1.53326601e-01 9.02180523e-02 1.50928888e-02 3.46455537e-02
      5.82343265e-02 8.79577398e-02 2.74299562e-01 9.52115431e-02
      9.74039510e-02 3.85686867e-02 1.10953368e-01 1.19351514e-01
      8.33818018e-02 2.03148827e-01 1.71774015e-01 4.73717034e-01
      2.45124191e-01 1.37198448e-01 1.03719339e-01 1.13542020e-01
      4.11082096e-02 4.88780811e-02 1.23651922e-01 3.08379084e-01
      1.06218681e-01 1.36173040e-01 8.04511160e-02 7.89527148e-02
      8.55822638e-02 5.27258264e-03 4.03866321e-02 4.84482199e-02
      7.84631968e-02 1.29657596e-01 7.59862065e-02 7.83216730e-02
      7.72684291e-02 7.12663233e-02 2.63141631e-03 7.76787102e-02
      9.83305424e-02 2.08109587e-01 4.25119936e-01 2.48697951e-01
      1.34200171e-01 9.98360664e-02 6.85505494e-02 1.73888225e-02
      2.27496009e-02 5.45523986e-02 3.28897268e-01 3.68260890e-01
      4.11909610e-01 2.00998247e-01 8.01341608e-02 3.15561928e-02
      2.87198275e-03 3.34846228e-02 8.01330656e-02 2.98446119e-01
      5.42759188e-02 3.10337283e-02 2.38151513e-02 1.92072466e-02
      1.49677023e-02 4.82994551e-03 4.06534262e-02 4.03441042e-02
      7.08253980e-02 7.77029172e-02 1.71972141e-01 6.75930679e-02
      1.37507683e-02 1.07990280e-02 7.80988578e-03 3.07164155e-02
      1.87006406e-02 4.41058688e-02 2.29270682e-01 4.10066187e-01
      8.61171260e-02 1.95007771e-02 1.01444637e-02 3.90092493e-04
      8.81155767e-03 1.76749248e-02 4.90459166e-02 5.44383705e-01
      5.44383705e-01 3.33773971e-01 1.11083649e-02 1.25897890e-02
      1.35655364e-03 6.24322658e-03 5.63710742e-03 3.88255343e-02
      2.08459254e-02 9.86487046e-02 3.87749411e-02 6.87456736e-03
      2.28284276e-03 7.21984543e-04 2.07270659e-03 1.63089251e-03
      3.74525110e-03 3.54870856e-02 4.03263867e-01 2.65377879e-01
      2.79507097e-02 6.01200294e-03 4.59519651e-04 8.36822728e-04
      2.36833701e-03 2.98173632e-03 2.49367341e-01 4.36391443e-01
      1.93503499e-01 1.68930902e-03 4.92828991e-03 1.67721344e-04
      3.61827755e-04 4.14782378e-04 1.51141761e-02 2.72898585e-01
      4.36391443e-01 4.36391443e-01 5.15063806e-03 2.40417849e-02
      2.05611250e-05 8.94764016e-05 3.78754485e-04 4.98348959e-02
      3.23566161e-02 3.54447126e-01 3.54447126e-01 3.81251983e-02
      1.56273246e-02 1.22825464e-03 1.23695747e-04 1.25336961e-03
      2.92257220e-03 4.25079651e-02 2.76514679e-01 3.54447126e-01
      1.41626641e-01 5.87804727e-02 3.05874157e-03 3.21994186e-04
      6.04654429e-03 1.90776475e-02 1.14897475e-01 3.54447126e-01
      3.54447126e-01 1.27169723e-02 4.30111140e-02 4.10257926e-05
      7.03257538e-05 5.07911551e-04 3.05932760e-02 9.75247025e-02
      3.23416501e-01 3.54447126e-01 3.85159664e-02 6.83007389e-02
      5.38321631e-03 1.49572652e-03 1.10329464e-02 3.39864455e-02
      1.67131618e-01 7.39352256e-02 8.34523439e-02 5.84810153e-02
      1.06205806e-01 7.49348700e-02 1.58770591e-01 1.34965107e-01
      2.12892860e-01 2.30934411e-01 1.07582413e-01 1.57525584e-01
      6.76241070e-02 1.23744234e-01 2.20625818e-01 2.71908611e-01
      2.71908611e-01 2.61802614e-01 2.38239199e-01 1.41166866e-01
      1.42903298e-01 1.05123542e-01 1.42035529e-01 4.82201278e-02
      5.29268906e-02 2.18556840e-02 1.79016933e-01 2.71908611e-01
      2.15069443e-01 1.51532263e-01 2.12963402e-01 1.74285859e-01
      1.28400713e-01 6.52535036e-02 1.47555366e-01 2.13977844e-01
      1.02282576e-01 2.39495672e-02 6.20006584e-02 3.20554264e-02
      5.84572144e-02 4.52011749e-02 2.48439044e-01 4.36451048e-01
      1.40844509e-01 1.36585250e-01 1.19343689e-02 1.21817896e-02
      1.18643772e-02 3.99301834e-02 1.54804541e-02 3.11401397e-01
      4.36451048e-01 3.49573761e-01 1.44091889e-01 5.58941290e-02
      4.30420004e-02 8.25046152e-02 9.84323695e-02 3.57911289e-02
      5.30090071e-02 1.43882290e-01 8.49605054e-02 1.66403964e-01
      6.04299195e-02 2.26956308e-02 5.92216253e-02 1.25072092e-01
      4.57238778e-02 1.24750324e-01 2.92611003e-01 2.07636058e-01
      4.90041748e-02 7.41139986e-03 2.95190886e-03 1.16949866e-03
      1.31274508e-02 7.50626950e-03 1.00264519e-01 3.72829765e-01
      3.28476459e-01 4.72529270e-02 5.27345063e-03 4.93676774e-03
      1.97682995e-03 9.62311029e-03 6.29151566e-03 5.51079251e-02
      3.72829765e-01 3.72829765e-01 6.88879639e-02 3.61495912e-02
      1.34225367e-02 1.23578720e-02 7.19894320e-02 3.16442885e-02
      6.51796833e-02 3.32786530e-01 1.81085497e-01 8.07512403e-02
      2.38150898e-02 2.29912642e-02 7.01994309e-03 6.34223968e-02
      1.95914749e-02 5.22857122e-02 3.72829765e-01 3.72829765e-01
      4.43031117e-02 9.81292780e-03 6.35455269e-03 1.07047437e-02
      3.32663395e-03 5.09119453e-03 2.73992810e-02 3.64795208e-01
      3.64795208e-01 3.90583761e-02 1.71902906e-02 8.19716882e-03
      1.67357512e-02 6.93021668e-03 1.02340542e-02 1.86477620e-02
      2.82082886e-01 3.09476405e-01 8.67756978e-02 1.59872714e-02
      8.13630130e-03 4.21344163e-03 1.34488419e-02 2.38292920e-03
      2.36820355e-02 3.64795208e-01 3.64795208e-01 8.92005488e-02
      8.48560780e-03 1.54426100e-03 1.91633985e-03 6.30700635e-03
      2.42061098e-03 1.37031693e-02 3.64795208e-01 3.64795208e-01
      5.31016104e-02 2.03053132e-02 9.21333767e-03 1.82870775e-02
      3.40038352e-02 3.64590511e-02 2.97340918e-02 1.62767619e-01
      2.23210171e-01 6.49811476e-02 2.34918334e-02 8.52123834e-03
      2.19586603e-02 3.72126997e-02 3.64047028e-02 2.11856961e-02
      7.63358772e-02 1.42507374e-01 1.12631820e-01 5.89131750e-03
      3.23061226e-03 4.26256005e-03 1.36667574e-02 2.64874706e-03
      1.38278930e-02 4.58170235e-01 4.58170235e-01 1.54547974e-01
      1.25517165e-02 2.01050751e-03 6.91002514e-03 2.29699947e-02
      1.39684812e-03 4.97312518e-03 4.58170235e-01 4.58170235e-01
      9.98421907e-02 5.05991951e-02 1.80670135e-02 1.73438229e-02
      2.52063517e-02 1.54159069e-02 1.59524642e-02 6.11913949e-02
      1.50963187e-01 1.33305535e-01 8.56468901e-02 4.43965085e-02
      7.87687860e-03 1.57170296e-02 8.20410997e-03 2.87678838e-02
      6.18979298e-02 1.97935477e-01 2.59877145e-01 2.66839191e-02
      1.00827320e-02 6.29525026e-03 2.69356575e-02 2.36122962e-03
      7.82455131e-03 4.02752668e-01 4.87745374e-01 3.36181581e-01
      4.16484475e-02 1.92864574e-02 5.56693529e-04 2.20985822e-02
      3.39854276e-03 2.19915826e-02 2.44395420e-01 4.87745374e-01
      1.04401536e-01 8.09647813e-02 3.93744707e-02 2.31990311e-02
      1.89660620e-02 2.06150487e-02 1.14479236e-01 1.58716246e-01
      1.86009586e-01 9.65199992e-02 6.38848394e-02 6.58544302e-02
      5.42786643e-02 4.73216809e-02 6.21778257e-02 1.49532169e-01
      1.30995423e-01 9.67538580e-02 3.45695257e-01 3.66403237e-02
      1.40379854e-02 6.62030233e-03 2.44885236e-02 4.96771559e-03
      5.44343330e-02 2.65404940e-01 4.48880017e-01 4.48880017e-01
      3.05624381e-02 6.20509200e-02 2.99900509e-02 2.85223369e-02
      1.81636568e-02 6.02071248e-02 1.28753901e-01 4.48880017e-01
      1.28519639e-01 8.52199197e-02 8.27907249e-02 4.18311544e-02
      5.65300919e-02 6.81740418e-02 9.85170081e-02 2.09476218e-01
      1.90718144e-01 9.13340971e-02 7.14595169e-02 3.62645537e-02
      4.77653220e-02 8.96761194e-02 8.97564963e-02 7.17739314e-02
      2.11166114e-01 2.18383923e-01 4.01667327e-01 4.28832322e-02
      7.86022693e-02 4.53274958e-02 3.39964740e-02 3.33840139e-02
      5.40885516e-02 1.94162562e-01 4.01667327e-01 4.01667327e-01
      6.14137203e-02 3.28677520e-02 4.53545302e-02 6.82099611e-02
      4.91935015e-02 3.88863832e-02 1.46344051e-01 4.01667327e-01
      6.13073371e-02 1.09446436e-01 5.53622544e-02 3.72137167e-02
      6.25418350e-02 5.53980581e-02 3.20757851e-02 4.67828289e-02
      6.03327043e-02 1.72584355e-01 1.66762054e-01 4.81640324e-02
      1.26994764e-02 3.30577083e-02 3.04380599e-02 4.35154587e-02
      6.41529560e-02 9.23009515e-02 4.49444920e-01 7.59954154e-02
      2.98715029e-02 1.55886058e-02 7.14535266e-02 4.92758155e-02
      3.34414244e-02 2.86919475e-02 4.49444920e-01 4.49444920e-01
      2.27591634e-01 2.33864076e-02 2.42876890e-03 6.29591495e-02
      3.16805840e-02 3.20666581e-02 4.61146049e-02 4.49444920e-01
      1.11425713e-01 7.60893226e-02 1.19418800e-02 6.53564977e-03
      8.53254553e-03 1.02162575e-02 2.52590720e-02 4.02408578e-02
      1.02142744e-01 7.19164237e-02 7.03778118e-02 2.55479366e-02
      9.46622435e-03 9.00014210e-03 1.76769849e-02 1.21931173e-02
      3.04584913e-02 7.67635480e-02 4.77897465e-01 2.33927250e-01
      1.41261639e-02 3.55458679e-03 1.62416250e-02 4.46960703e-03
      7.47571466e-03 1.54867945e-02 3.24489057e-01 4.77897465e-01
      3.37989599e-01 3.34036686e-02 7.59291649e-03 8.16483423e-03
      5.21927560e-03 4.67147538e-03 2.39083394e-02 4.60502237e-01
      3.88162024e-02 2.44688150e-02 2.02050582e-02 4.43525985e-03
      5.69809321e-03 8.62239860e-03 6.72476506e-03 1.85231566e-02
      2.67272126e-02 1.21996120e-01 5.31759858e-02 1.76386349e-02
      1.32822357e-02 1.09726759e-02 5.34014171e-03 6.86849980e-03
      1.88204050e-02 5.81937991e-02 4.91378307e-01 2.92951226e-01
      3.13367322e-02 4.93355282e-03 5.07311802e-03 1.61968742e-03
      4.58081672e-03 1.61834788e-02 2.58178860e-01 4.91378307e-01
      4.91378307e-01 3.21339555e-02 1.98734142e-02 1.28795160e-02
      2.45603849e-03 1.12373112e-02 1.08800558e-02 2.98693687e-01
      1.47398382e-01 7.69884139e-02 1.54061839e-02 1.16679929e-02
      5.96868899e-03 3.02322023e-03 1.96647597e-03 7.00079370e-03
      3.52421217e-02 3.87490928e-01 2.89770037e-01 2.22903658e-02
      8.22415575e-03 2.94859940e-03 8.44177732e-04 1.02330407e-03
      7.12099625e-03 2.87267417e-02 4.14122403e-01 4.14122403e-01
      1.87272802e-02 1.46244885e-02 1.31120766e-02 2.61035305e-03
      8.77995230e-03 1.01676993e-02 1.48847252e-01 4.14122403e-01
      4.14122403e-01 3.92084792e-02 1.24451714e-02 2.46201716e-02
      9.31300572e-04 1.17675671e-02 1.66033376e-02 1.38374016e-01
      3.42992634e-01 3.42992634e-01 4.77446839e-02 3.34602525e-03
      2.26934580e-03 0. 1.61758537e-04 1.51579909e-03 2.13130508e-02
      3.42992634e-01 3.42992634e-01 1.34497061e-01 1.79664651e-03
      4.04070644e-03 0. 1.78305447e-04 1.93070911e-03 5.05887009e-02
      3.42992634e-01 3.42992634e-01 6.76276684e-02 6.64384989e-03
      3.32016535e-02 1.97216519e-03 7.88998604e-03 6.70629786e-03
      6.51585832e-02 3.42992634e-01 3.42992634e-01 1.08425543e-01
      9.18228459e-03 3.89178358e-02 2.93462072e-03 4.59203357e-03
      1.07531929e-02 9.17601734e-02 3.83037925e-01 3.83037925e-01
      2.56069362e-01 2.29274854e-03 8.98964424e-03 7.72784580e-04
      3.53373867e-03 3.95750115e-03 6.25941157e-02 2.92480797e-01
      3.83037925e-01 3.11342716e-01 9.46162920e-03 3.38184796e-02
      9.93580092e-04 4.83668596e-03 1.40292756e-03 8.90188068e-02
      2.58607686e-01 3.83037925e-01 1.02275021e-01 8.12431425e-03
      3.84391174e-02 5.43159526e-03 1.62945092e-02 2.86344141e-02
      9.92579609e-02 1.35745645e-01 1.51153177e-01 8.81215036e-02
      2.29577925e-02 5.31134643e-02 7.41667021e-03 2.04483233e-02
      2.03230623e-02 7.00776875e-02 3.40775281e-01 3.42429996e-01
      3.42429996e-01 2.03601960e-02 9.35999751e-02 6.73788250e-04
      5.05635841e-03 8.14828835e-03 1.62088588e-01 2.50282794e-01
      3.42429996e-01 3.42429996e-01 4.86588292e-02 9.49963033e-02
      1.41073242e-02 2.11712793e-02 4.01230194e-02 1.15561478e-01
      1.83753163e-01 1.81778803e-01 1.90131128e-01 4.55685593e-02
      1.30135745e-01 2.19127666e-02 1.90022457e-02 3.35790776e-02
      1.62348285e-01 1.65282845e-01 1.10498212e-01 1.47263408e-01
      4.32454012e-02 1.33603364e-01 7.09225461e-02 5.94300553e-02
      8.79779309e-02 1.96720302e-01</_>
    <_>
      1.70906752e-01 1.04113027e-01 1.63813695e-01 2.94994637e-02
      1.10847555e-01 5.75341564e-03 6.26816303e-02 3.67335752e-02
      1.56257123e-01 2.11375788e-01 1.85859084e-01 2.24518359e-01
      6.79013431e-02 1.71595320e-01 1.04402397e-02 9.84051675e-02
      5.53430989e-02 1.72824979e-01 2.25283936e-01 3.19241077e-01
      2.99107313e-01 8.67827460e-02 7.98233896e-02 2.62970235e-02
      7.67324492e-02 3.37555334e-02 1.18308313e-01 3.52781117e-01
      3.52781117e-01 3.52781117e-01 6.37775511e-02 6.62947223e-02
      2.55116541e-02 5.22240475e-02 5.92340529e-02 1.17604025e-01
      9.07122418e-02 1.44572139e-01 8.58992189e-02 2.04849485e-02
      6.76972046e-02 1.21263638e-02 4.03320566e-02 1.72531381e-02
      6.99459016e-02 1.63475022e-01 4.67602551e-01 1.17311500e-01
      1.89127494e-02 6.31112307e-02 2.01632455e-02 3.70945781e-02
      1.87729448e-02 7.28566125e-02 1.68097928e-01 4.67602551e-01
      2.29319677e-01 1.35486415e-02 2.27995440e-02 1.28691504e-02
      1.28260246e-02 2.91100536e-02 4.56687696e-02 3.25217038e-01
      4.67602551e-01 2.12240905e-01 1.66498777e-02 1.71454735e-02
      8.99073295e-03 6.97790598e-03 1.52739203e-02 4.55084071e-02
      2.62611210e-01 3.65954518e-01 7.06517249e-02 1.23674236e-02
      2.70339027e-02 1.09238308e-02 1.14852693e-02 1.44408559e-02
      3.18463370e-02 3.65954518e-01 3.65954518e-01 3.21592651e-02
      7.33994227e-03 1.53891277e-02 7.97288772e-03 1.35333594e-02
      1.46632185e-02 4.91446033e-02 3.24462563e-01 3.65954518e-01
      6.57679588e-02 6.22253679e-03 5.46890544e-03 3.96379782e-03
      9.42852697e-04 3.15469503e-03 1.63184889e-02 3.65954518e-01
      3.65954518e-01 3.92881520e-02 1.09147150e-02 1.63788581e-03
      3.41940718e-03 1.94369047e-03 2.10376922e-03 2.53693964e-02
      4.06764597e-01 4.06764597e-01 2.01436039e-02 6.85197162e-03
      1.04896501e-02 7.19417399e-03 9.16173216e-03 7.23053236e-03
      5.83339557e-02 4.06764597e-01 4.06764597e-01 2.22702492e-02
      1.03507517e-02 2.57380051e-03 2.62548029e-03 6.37148088e-03
      6.79519307e-03 3.38225067e-02 4.06764597e-01 2.53067285e-01
      5.55983149e-02 2.14051679e-02 4.06855950e-03 4.82436130e-03
      2.93815788e-03 4.17647650e-03 3.93731706e-02 2.62389660e-01
      1.39982834e-01 5.89637458e-02 2.12542266e-02 8.41425732e-03
      5.02734957e-03 3.72716272e-03 6.62448630e-03 3.02310213e-02
      4.96920794e-01 4.96433288e-01 2.95728613e-02 1.43070212e-02
      3.70404520e-03 1.49362104e-03 6.77433750e-03 7.49527290e-03
      9.41924155e-02 4.96920794e-01 2.21122012e-01 2.77382415e-02
      1.40952766e-02 4.96761780e-03 5.06677665e-03 9.49709583e-03
      1.10141914e-02 2.32386276e-01 2.11580172e-01 1.16153456e-01
      6.32946268e-02 4.04016785e-02 2.32767891e-02 8.41065124e-03
      1.00475047e-02 1.39127159e-02 4.95990701e-02 1.80470988e-01
      1.75733775e-01 6.31294474e-02 3.31322439e-02 1.89818721e-02
      6.80431072e-03 1.63711123e-02 1.99247748e-02 6.05179965e-02
      3.88565272e-01 1.21396847e-01 3.00707724e-02 1.77802071e-02
      9.33158770e-03 9.35643539e-03 7.72523461e-03 2.12152451e-02
      3.88565272e-01 3.88565272e-01 9.04724747e-02 2.62193307e-02
      2.27308720e-02 2.05975156e-02 1.86948813e-02 2.61292122e-02
      6.07094504e-02 3.88565272e-01 2.46918038e-01 2.76213706e-01
      7.29526728e-02 1.29044745e-02 7.06605799e-03 8.93689971e-03
      1.26250787e-02 1.64697338e-02 8.06149468e-02 3.05971354e-01
      2.63719559e-01 7.11228028e-02 7.64703425e-03 6.44952571e-03
      1.18714124e-02 1.69430263e-02 5.99553511e-02 1.97115988e-01
      3.68148118e-01 5.26298620e-02 7.04833260e-03 6.02736464e-03
      1.33178877e-02 1.12607786e-02 2.69208346e-02 1.16317585e-01
      3.68148118e-01 3.68148118e-01 2.78148614e-02 1.98504888e-03
      2.83224625e-04 8.23422335e-03 1.97549281e-03 1.94388293e-02
      1.92653298e-01 3.68148118e-01 2.51267225e-01 1.29408762e-01
      2.69244481e-02 8.00482836e-03 3.43774469e-03 1.50710903e-02
      2.46824566e-02 9.51297134e-02 2.92694658e-01 3.07370573e-01
      9.06403288e-02 2.06787642e-02 1.21150371e-02 2.15038285e-03
      1.30316271e-02 2.54267827e-02 1.07096404e-01 3.26552570e-01
      3.98218721e-01 1.97887942e-02 5.73478267e-03 7.70611269e-03
      8.28619767e-03 4.44576843e-03 3.33488360e-02 1.98764816e-01
      3.98218721e-01 3.98218721e-01 1.83673725e-02 5.75959031e-03
      1.58375092e-02 1.66378934e-02 5.28592803e-03 2.93907616e-02
      1.89785168e-01 3.98218721e-01 2.88818747e-01 6.23711944e-02
      2.85125580e-02 2.46167723e-02 7.93448836e-03 1.51232621e-02
      4.23047841e-02 1.45937249e-01 2.68099099e-01 1.76224604e-01
      5.73539771e-02 3.29112001e-02 4.73386683e-02 2.04746481e-02
      2.25189570e-02 5.61803356e-02 1.49579734e-01 1.86016425e-01
      3.57753277e-01 2.09759232e-02 9.27007291e-03 7.65176816e-03
      1.34177981e-02 5.27839456e-03 1.21772699e-02 8.64296407e-02
      4.20855999e-01 4.05840665e-01 2.05852445e-02 1.93398427e-02
      2.49296497e-03 2.02419460e-02 9.68307257e-03 9.49779153e-03
      9.12230089e-02 4.20855999e-01 1.50561616e-01 5.63834719e-02
      3.13883945e-02 2.72472408e-02 1.21059753e-02 2.58373432e-02
      4.94796224e-02 6.23648688e-02 1.85369089e-01 2.34764695e-01
      5.65522909e-02 5.52282743e-02 1.46961519e-02 2.46764384e-02
      5.77858351e-02 6.36699423e-02 1.22240253e-01 4.20855999e-01
      3.37426990e-01 8.23253021e-03 7.09480233e-03 1.25385309e-03
      1.69360917e-02 1.18317027e-02 1.25505198e-02 9.51374397e-02
      4.22774643e-01 2.58213282e-01 1.08634355e-02 1.77249336e-03
      5.50812401e-04 6.75619766e-03 1.09182978e-02 2.05436051e-02
      2.25749612e-01 4.22774643e-01 1.21719435e-01 1.66011527e-02
      3.10013257e-02 8.59048776e-03 5.26087172e-02 8.56302306e-02
      7.14116246e-02 1.56586736e-01 3.77452701e-01 4.44690064e-02
      1.13818888e-02 7.28581427e-03 4.25146427e-03 3.58631276e-02
      7.53240809e-02 9.07168090e-02 3.21388334e-01 2.78152138e-01
      1.40054077e-01 8.31074081e-03 4.84417193e-03 8.76002538e-04
      1.35241449e-03 2.43065879e-03 1.12258131e-02 2.23387569e-01
      4.82240111e-01 1.72915012e-01 2.10294593e-02 7.24045513e-03
      1.92720548e-03 1.09263416e-02 4.45242971e-03 1.41255511e-02
      3.74464601e-01 4.82240111e-01 3.68842669e-02 7.93671329e-03
      7.77310401e-04 1.31950597e-03 1.26700231e-03 1.81907862e-02
      4.02584411e-02 2.74596781e-01 2.27192670e-01 1.25609994e-01
      3.72968502e-02 6.78837346e-03 2.63015204e-03 1.99940754e-03
      5.53175760e-03 2.01302916e-02 1.65464640e-01 3.37532938e-01
      1.33731112e-01 1.86262932e-02 9.42156464e-03 1.60059799e-03
      1.35166151e-02 5.60286734e-03 1.02974018e-02 3.37920040e-01
      4.01302785e-01 1.35626137e-01 2.47995965e-02 2.57469695e-02
      2.47952202e-03 3.07627786e-02 7.52063096e-03 2.96923406e-02
      4.01302785e-01 4.01302785e-01 1.18165888e-01 3.96009795e-02
      1.20308250e-02 3.64179257e-03 6.18312601e-03 5.22948336e-03
      7.58125400e-03 7.58976489e-02 2.63352871e-01 8.65052268e-02
      3.77827473e-02 1.67127941e-02 8.33751354e-03 3.27497199e-02
      4.07504551e-02 3.19503732e-02 3.05743098e-01 4.01302785e-01
      4.26220186e-02 7.65755866e-03 1.04657700e-02 7.62484386e-04
      2.34297160e-02 2.77946936e-03 2.61954889e-02 3.67036849e-01
      3.67036849e-01 3.94979790e-02 5.91228832e-04 1.33954757e-03
      1.58151379e-04 1.86727773e-02 8.61379813e-05 5.29092290e-02
      3.67036849e-01 2.42352143e-01 1.71865616e-02 9.18495096e-03
      3.06324614e-03 4.17743344e-03 1.38299149e-02 2.12426856e-02
      5.04241437e-02 3.67036849e-01 3.67036849e-01 2.46199276e-02
      3.01888958e-03 7.51980260e-05 1.25308090e-03 8.10308009e-03
      1.41860992e-02 9.77239311e-02 3.67036849e-01 3.27624917e-01
      4.92617749e-02 7.64463388e-04 2.28756061e-03 0. 6.00941405e-02 0.
      5.12329713e-02 4.06934619e-01 1.34970620e-01 8.58975425e-02
      1.39153479e-02 4.16399315e-02 0. 1.35018304e-01 0. 4.38511372e-02
      9.34663489e-02 9.94126797e-02 5.07544205e-02 7.98012875e-03
      2.46028486e-03 0. 3.84996943e-02 8.77216086e-03 1.60587132e-01
      5.01741648e-01 3.00006449e-01 6.76835105e-02 2.41263919e-02
      6.56611249e-02 0. 1.33278012e-01 5.79296378e-03 2.63609499e-01
      5.01741648e-01 1.84884474e-01 2.08934247e-01 2.50507947e-02
      7.49613345e-02 0. 2.89723843e-01 0. 9.68927518e-02 4.17319499e-02
      2.09872648e-01 1.17926106e-01 4.34835150e-04 1.30118814e-03 0.
      1.84784189e-01 0. 7.45619088e-02 2.49173455e-02 1.17926106e-01
      1.97768658e-01 4.55284044e-02 1.36238053e-01 0. 3.40606928e-01
      3.02687213e-02 3.40606928e-01 3.40606928e-01 3.11607122e-01
      2.07974046e-01 1.70674257e-03 5.10721514e-03 0. 3.32151026e-01
      1.13779530e-02 1.46671727e-01 9.63246599e-02 2.21612811e-01
      4.43032570e-02 1.84902847e-01 3.05958211e-01 5.17881624e-02
      1.86258014e-02 4.91804490e-03 1.36013171e-02 8.54573864e-03
      1.66354645e-02 8.33609626e-02 3.88458997e-01 3.88458997e-01
      2.80111935e-02 5.20955212e-03 2.89001199e-03 4.55424376e-03
      8.22796952e-03 1.12496875e-02 2.18851939e-02 2.94986099e-01
      3.88458997e-01 9.95375663e-02 1.71783753e-02 4.06666379e-03
      5.40286442e-03 2.09014621e-02 7.26615218e-03 1.13442075e-02
      3.88458997e-01 3.88458997e-01 4.17328887e-02 3.81900696e-03
      1.01218349e-03 4.61198436e-03 7.55846407e-03 9.19895247e-03
      1.43760756e-01 4.33814675e-01 4.33814675e-01 4.84965555e-03
      3.60927032e-03 4.67896415e-03 3.10402666e-03 1.70385167e-02
      1.43218916e-02 2.07843617e-01 4.33814675e-01 1.68518096e-01
      7.20453914e-03 1.87232404e-03 1.24057289e-03 2.30636401e-03
      1.01173231e-02 1.55735770e-02 2.92462371e-02 4.33814675e-01
      3.40982944e-01 1.25438282e-02 6.95389416e-03 3.36880074e-03
      6.08505541e-03 1.33847641e-02 1.48874782e-02 5.05789816e-02
      1.57397121e-01 6.18541092e-02 1.27399135e-02 9.15808417e-03
      2.32672598e-03 3.94216692e-03 1.36153325e-02 1.61455199e-02
      4.24296767e-01 4.24296767e-01 1.59972802e-01 2.84657031e-02
      4.71806992e-03 5.22910291e-03 3.90359201e-03 1.49297370e-02
      2.92574279e-02 2.64298201e-01 4.24296767e-01 3.23244900e-01
      9.46334377e-02 1.78758018e-02 1.85894221e-02 8.67786538e-03
      2.11535413e-02 3.45231071e-02 1.32221520e-01 2.52598256e-01
      1.40541553e-01 3.51176448e-02 2.38917340e-02 7.17488257e-03
      1.01976274e-02 4.49140780e-02 4.81719114e-02 1.19772710e-01
      2.03008041e-01 2.37476528e-01 8.51638913e-02 7.05901012e-02
      3.98706011e-02 3.17122750e-02 6.27695844e-02 6.62975162e-02
      1.63571283e-01 3.06554168e-01 3.06554168e-01 1.34626791e-01
      4.54329923e-02 3.41583788e-02 1.97330378e-02 3.10901944e-02
      8.51956457e-02 2.44684666e-01 3.06554168e-01 2.31890664e-01
      1.14391126e-01 1.46094620e-01 9.51699466e-02 5.94440475e-02
      8.33138004e-02 1.74591258e-01 1.08346649e-01 2.20176116e-01
      2.16954246e-01 1.25323728e-01 1.55346096e-01 9.04505551e-02
      6.97155818e-02 6.11381680e-02 8.95281658e-02 1.57189667e-01
      1.39722139e-01 1.09037004e-01 1.48974165e-01 2.35704601e-01
      2.03423455e-01 2.78206885e-01 1.06140941e-01 1.56088352e-01
      2.73756355e-01 2.30711401e-01 1.39085755e-01 1.44539073e-01
      1.76636353e-01 8.98136422e-02 7.10010678e-02 9.05112103e-02
      1.35770217e-01 3.09576005e-01 3.09576005e-01 1.65178195e-01
      1.29646525e-01 1.28941551e-01 4.12930474e-02 1.19021907e-01
      1.31037697e-01 1.20544985e-01 2.16060296e-01 1.07222103e-01
      5.55709638e-02 1.35735005e-01 1.63684532e-01 1.43850237e-01
      2.55485713e-01 1.28795400e-01 1.87883541e-01 1.48259625e-01
      9.24417078e-02 3.76500152e-02 9.20332819e-02 9.26222652e-02
      7.39021823e-02 2.46319324e-01 2.51075387e-01 1.87339559e-01
      3.19726080e-01 3.19726080e-01 1.23451784e-01 3.26940008e-02
      3.40666100e-02 2.02994887e-02 1.01243295e-01 1.29347131e-01
      1.39463365e-01 3.19726080e-01 3.19726080e-01 6.77471384e-02
      1.25469603e-02 1.84936784e-02 1.85297299e-02 5.82118221e-02
      1.66388273e-01 2.66426563e-01 1.60655767e-01 8.62922221e-02
      3.01261283e-02 3.92098464e-02 5.80166019e-02 5.19977137e-02
      2.07391903e-01 2.22851247e-01 1.80378616e-01 3.04454327e-01
      1.48061156e-01 3.94852087e-02 4.01924700e-02 5.67652956e-02
      2.79401802e-02 6.38764277e-02 2.04788461e-01 2.85152346e-01
      3.17259282e-01 2.19019488e-01 7.00795501e-02 3.61551158e-02
      1.80858057e-02 4.02189232e-02 6.68908283e-02 1.48099631e-01
      3.28390807e-01 3.28390807e-01 1.73791796e-01 1.34217858e-01
      5.72185442e-02 1.54862627e-02 5.59270270e-02 6.67491853e-02
      1.00252688e-01 2.95364350e-01 3.24355096e-01 1.36914238e-01
      9.55292508e-02 6.38516769e-02 5.57485595e-02 4.11882028e-02
      5.87412901e-02 1.64999887e-01 2.72802591e-01 2.53936559e-01
      1.43740624e-01 1.48074254e-01 6.74138665e-02 7.51579478e-02
      9.76134017e-02 1.36363149e-01 1.14811383e-01 1.88713968e-01
      2.60756105e-01 1.13217853e-01 1.12051271e-01 5.82276247e-02
      2.12848447e-02 7.29349777e-02 8.02082494e-02 1.20858915e-01
      2.32008010e-01 2.09387615e-01 1.26757056e-01 1.00861482e-01
      9.54923108e-02 1.04493365e-01 1.04379416e-01 1.04892641e-01
      1.44896194e-01 2.47768342e-01 2.11100087e-01 1.74914822e-01
      1.47353396e-01 1.32555038e-01 9.24559608e-02 9.95397046e-02
      1.13376558e-01 8.86187181e-02 1.22226544e-01 3.37281168e-01
      3.37281168e-01 2.73294628e-01 2.47458473e-01 1.48533255e-01
      1.43019602e-01 7.13066086e-02 8.30091462e-02 1.95828453e-01
      1.92241311e-01 1.18784815e-01 5.78021407e-02 4.05322500e-02
      5.31067587e-02 5.13064861e-02 6.41764775e-02 1.09131284e-01
      1.57121211e-01 2.99195260e-01 1.35324284e-01 6.19775467e-02
      2.23943796e-02 3.82350124e-02 1.00806154e-01 1.31502032e-01
      2.25143284e-01 2.99195260e-01 2.79118955e-01 2.99195260e-01
      1.75716504e-01 1.06315903e-01 7.31106475e-02 5.72886989e-02
      3.04127280e-02 8.98971260e-02 1.30344421e-01 2.99195260e-01
      2.98160523e-01 1.45316631e-01 8.08857754e-02 5.97934946e-02
      7.01473653e-02 1.58831894e-01 1.99871734e-01 2.99195260e-01
      1.43210828e-01 6.85472116e-02 3.29464488e-02 1.72097292e-02
      5.68351522e-02 1.63693681e-01 1.94387212e-01 2.13201329e-01
      2.50105798e-01 9.10459608e-02 5.30488044e-02 3.14128697e-02
      2.71512885e-02 4.42501083e-02 1.43131152e-01 2.65138298e-01
      2.86834806e-01 2.86834806e-01 1.81422696e-01 1.21519081e-01
      5.11990115e-02 5.14528640e-02 5.33314310e-02 1.30859211e-01
      2.49907047e-01 2.26226896e-01 2.46622339e-01 1.14915095e-01
      9.03477520e-02 7.72000700e-02 7.98254386e-02 4.00200710e-02
      1.50448859e-01 2.86834806e-01 2.86834806e-01 2.33981371e-01
      8.41096118e-02 1.82243399e-02 2.45266370e-02 1.85800120e-02
      9.35685635e-03 4.59722169e-02 1.22644313e-01 3.05115938e-01
      3.05115938e-01 1.22856013e-01 3.30908559e-02 1.85549017e-02
      7.49779074e-03 1.99691821e-02 5.66606037e-02 1.15514979e-01
      3.05115938e-01 3.05115938e-01 1.33788913e-01 4.46620397e-02
      8.54591802e-02 8.24574307e-02 4.26055044e-02 8.40833038e-02
      1.91057667e-01 3.05115938e-01 3.05115938e-01 1.13204025e-01
      5.29546179e-02 8.70032534e-02 7.20627606e-02 1.24518260e-01
      1.84496775e-01 2.17048705e-01 3.05115938e-01 2.85870939e-01
      2.19170690e-01 9.55166370e-02 3.81360091e-02 1.21507850e-02
      3.45700011e-02 7.43023679e-02 1.45573184e-01 2.30191574e-01
      2.46417463e-01 1.42572999e-01 7.85301328e-02 6.04056157e-02
      3.82206514e-02 8.69965777e-02 1.75378054e-01 1.93157226e-01
      2.79798061e-01 2.55296856e-01 9.43602026e-02 8.57102647e-02
      8.81131217e-02 5.32723255e-02 1.37891099e-01 2.65812010e-01
      3.16200852e-01 3.16736668e-01 1.74781695e-01 1.32085755e-01
      7.30195194e-02 9.19264108e-02 4.66077030e-02 7.09117353e-02
      1.53089449e-01 1.65014505e-01 2.31180534e-01 2.36300692e-01
      3.38108614e-02 1.40945874e-02 1.97596531e-02 1.28757805e-02
      3.05816941e-02 9.65747014e-02 2.03950360e-01 3.84665966e-01
      1.86383694e-01 5.36796972e-02 4.09940518e-02 6.35382673e-03
      4.82523534e-03 2.80103851e-02 1.99516758e-01 3.86668056e-01
      4.01055098e-01 3.12066019e-01 9.92026478e-02 5.92861511e-02
      6.48523048e-02 2.47679353e-02 2.50669923e-02 7.07811490e-02
      1.03058875e-01 9.85948965e-02 1.13143273e-01 1.68202743e-01
      1.50745913e-01 9.80912670e-02 5.39817214e-02 6.71180636e-02
      2.72015423e-01 2.74567395e-01 1.54090181e-01 9.18334797e-02
      2.78534237e-02 2.13864446e-02 8.92702257e-04 2.49733357e-03
      9.75454878e-03 3.93287353e-02 1.43043935e-01 4.25309330e-01
      1.37704983e-01 1.65797919e-02 1.09437108e-02 1.56698264e-02
      1.13515160e-03 3.33034620e-02 1.16490638e-02 4.25309330e-01
      4.25309330e-01 1.26544788e-01 4.43262756e-02 3.84381004e-02
      1.34064993e-02 1.80229116e-02 3.84904444e-02 8.28006566e-02
      1.00636788e-01 1.74911693e-01 5.46118319e-02 1.89433545e-02
      1.04647670e-02 9.82242054e-04 7.79677834e-03 1.94790941e-02
      2.33327132e-02 3.85121912e-01 4.25309330e-01 7.89396092e-02
      1.65967923e-02 3.74283362e-03 1.11999679e-02 0. 4.04540561e-02
      2.17431020e-02 3.84956926e-01 3.84956926e-01 6.60951957e-02
      3.83338779e-02 3.34247918e-04 1.00019667e-03 0. 5.27290776e-02
      2.06617322e-02 2.27993384e-01 1.65502027e-01 5.97768500e-02
      9.87518113e-03 3.51047958e-03 7.33249588e-04 1.75211125e-03
      5.35751227e-03 3.45362276e-02 3.84956926e-01 3.84956926e-01
      5.25894798e-02 2.66310778e-02 2.67450162e-03 6.74299290e-03
      8.95884659e-05 4.12634499e-02 9.95466486e-02 3.84956926e-01
      3.76130819e-01 5.22518903e-02 1.92766804e-02 2.84254879e-01
      3.97545397e-01 3.97545397e-01 7.29792342e-02 6.89118449e-03
      5.14768856e-03 1.89739279e-02 7.12701911e-03 1.32901696e-02
      1.58655092e-01 3.97545397e-01 6.78176656e-02 1.96119566e-02
      8.17735866e-03 1.00041162e-02 1.41233513e-02 1.69224646e-02
      8.66358634e-03 3.73604596e-02 3.54515165e-01 3.97545397e-01
      3.27184498e-01 1.40336659e-02 8.94370861e-03 9.40444786e-03
      9.20394436e-03 1.62872262e-02 2.13795733e-02 7.21633807e-02
      5.08935861e-02 3.53733152e-02 1.58591289e-02 2.36261915e-02
      2.10819244e-02 1.46360286e-02 6.75572976e-02 2.75348812e-01
      3.45273465e-01 1.54334843e-01 1.31239906e-01 5.98185733e-02
      7.31342062e-02 8.81614909e-02 7.17999265e-02 1.65352747e-01
      3.45273465e-01 3.45273465e-01 1.14710614e-01 1.08973891e-01
      3.70826758e-02 6.42757267e-02 9.92082208e-02 6.41956329e-02
      7.38429055e-02 9.25944299e-02 1.73935249e-01 1.47790268e-01
      1.63056299e-01 1.14694849e-01 1.74134433e-01 1.57208070e-01
      5.66653199e-02 1.36178449e-01 2.03871608e-01 2.37530842e-01
      1.69874251e-01 1.29944384e-01 1.07644066e-01 1.75893888e-01
      2.19883442e-01 8.07850584e-02 1.77511320e-01 2.93193907e-01
      2.08741859e-01 6.73308223e-02 7.92221501e-02 2.30704043e-02
      2.75024213e-02 8.52749050e-02 1.11185998e-01 2.15859368e-01
      2.38948256e-01 2.15500236e-01 4.86347936e-02 1.01420924e-01
      5.37295640e-02 4.75642532e-02 1.11582540e-01 1.88732982e-01
      1.70190290e-01 2.24613324e-01 1.64707959e-01 1.53819725e-01
      9.69880670e-02 4.58869264e-02 1.07742347e-01 1.38087437e-01
      1.62232891e-01 1.86415002e-01 2.63810992e-01 3.34787101e-01
      1.15072928e-01 6.12043552e-02 5.18401600e-02 1.90678746e-01
      1.94402158e-01 2.80900002e-01 1.29172698e-01 1.17356434e-01
      1.47653550e-01 4.81052324e-02 1.00385487e-01 5.95357120e-02
      7.35075250e-02 7.88033009e-02 1.48314595e-01 1.55860126e-01
      5.76724857e-02 8.69656280e-02 8.15412849e-02 1.19920842e-01
      1.49435759e-01 2.72325903e-01 1.38467595e-01 2.26897627e-01
      1.97001651e-01 2.09981352e-01 3.32599103e-01 5.14815263e-02
      4.08625193e-02 2.56456919e-02 7.98694044e-02 1.23827189e-01
      2.55064547e-01 3.32599103e-01 1.33864522e-01 1.79629698e-01
      5.92068247e-02 8.36002007e-02 9.43250060e-02 1.47926763e-01
      2.71171808e-01 3.32599103e-01 1.30053714e-01 3.91742922e-02
      5.94866201e-02 6.55233189e-02 7.95626491e-02 1.38907000e-01
      2.58057952e-01 1.22166656e-01 2.16643706e-01 1.27012640e-01
      6.18055947e-02 5.25238849e-02 5.27077429e-02 5.74222468e-02
      1.09588049e-01 2.05781788e-01 1.83692247e-01 2.04342365e-01
      2.29467377e-01 7.40995482e-02 7.67016560e-02 4.86512296e-02
      6.62280545e-02 1.57033771e-01 1.88541591e-01 2.57460475e-01
      3.29719156e-01 2.10067466e-01 1.07426904e-01 1.25770852e-01
      6.96343929e-02 7.18535632e-02 1.48932844e-01 1.74945682e-01
      3.29719156e-01 3.29719156e-01 1.47913799e-01 1.12911575e-01
      6.59580380e-02 3.06571443e-02 5.36609143e-02 5.97655475e-02
      1.31391272e-01 1.34601638e-01 1.81623876e-01 2.91568011e-01
      2.35926464e-01 9.06441659e-02 5.77882528e-02 8.27991590e-02
      5.39751090e-02 5.62251136e-02 1.29739180e-01 2.48562112e-01
      1.99902564e-01 1.71697125e-01 1.73692167e-01 4.15988751e-02
      7.66432807e-02 6.49421662e-02 9.57379863e-02 2.91568011e-01
      2.53924429e-01 2.91568011e-01 2.78749466e-01 2.08319366e-01
      6.67517185e-02 1.08383916e-01 7.71602318e-02 9.62368473e-02
      2.14351222e-01 2.91568011e-01 2.50483006e-01 1.23104081e-01
      8.45377520e-02 1.06632397e-01 1.20245069e-01 6.76694289e-02
      5.34240380e-02 1.05134040e-01 1.79867312e-01 1.79687589e-01
      1.45505711e-01 9.60764512e-02 1.00393422e-01 9.72616747e-02
      6.12479448e-02 7.00638220e-02 7.39351958e-02 1.33283973e-01
      3.12446922e-01 1.79972872e-01 1.25088349e-01 1.20642081e-01
      1.40394270e-01 7.70233050e-02 9.07388330e-02 1.57613292e-01
      3.12446922e-01 3.12446922e-01 3.12446922e-01 2.47797638e-01
      1.68268919e-01 8.49837512e-02 2.67209318e-02 4.81254198e-02
      1.07937224e-01 3.12446922e-01 1.59710780e-01 2.14484915e-01
      1.20806113e-01 9.80369598e-02 6.29043803e-02 3.11500672e-02
      5.32027781e-02 5.38870394e-02 7.76084736e-02 2.27869004e-01
      3.01417083e-01 2.03920826e-01 1.41795024e-01 4.63176221e-02
      3.61737385e-02 4.62509580e-02 6.09958954e-02 7.58788735e-02
      2.92817593e-01 3.02935183e-01 2.22250924e-01 1.35600865e-01
      4.69671004e-02 1.83284730e-02 6.79558143e-02 1.44923031e-01
      2.38893911e-01 2.48135760e-01 2.27482274e-01 1.38877958e-01
      7.18281269e-02 3.06703914e-02 2.37416532e-02 1.08152553e-01
      3.02935183e-01 3.02935183e-01 2.08520934e-01 2.41604164e-01
      1.70187190e-01 1.14822395e-01 4.31430489e-02 3.78543064e-02
      5.00722490e-02 9.24600959e-02 8.35376531e-02 3.05349201e-01
      2.07680270e-01 1.52468249e-01 1.38272390e-01 7.45171383e-02
      4.95271087e-02 8.88785720e-02 1.47256330e-01 2.06551135e-01
      3.05349201e-01 1.43734485e-01 1.35437801e-01 9.59330946e-02
      2.60270145e-02 4.01589908e-02 9.12817195e-02 2.56028920e-01
      2.50318497e-01 3.05349201e-01 1.76879153e-01 1.55253902e-01
      1.53612718e-01 4.97908331e-02 6.49465248e-02 1.02040529e-01
      1.90996304e-01 2.57952422e-01 2.30412930e-01 1.31508112e-01
      1.19383551e-01 1.35568276e-01 1.16024233e-01 1.03117220e-01
      1.71726838e-01 2.04044670e-01 2.05329791e-01 1.17716052e-01
      1.09029606e-01 1.20184377e-01 1.55399978e-01 1.14381865e-01
      1.48584217e-01 2.72254974e-01 2.99769133e-01 1.38906702e-01
      3.07008415e-01 1.26402497e-01 1.00977533e-01 1.19259268e-01
      1.13852367e-01 1.10483736e-01 1.41467825e-01 2.17725351e-01
      2.05059811e-01 1.57226950e-01 1.04807645e-01 1.09581113e-01
      1.41322553e-01 1.96825981e-01 1.36559919e-01 1.54053688e-01
      1.94196790e-01 1.33990034e-01 1.22307539e-01 9.04324427e-02
      1.30072564e-01 1.38854370e-01 1.08902141e-01 9.61574167e-02
      1.61349937e-01 2.33712152e-01 2.01588497e-01 1.55309290e-01
      1.11773424e-01 1.75152272e-01 1.40454471e-01 2.11156353e-01
      1.83049351e-01 1.47181764e-01 2.40197897e-01 2.37732485e-01
      9.97509137e-02 1.06905743e-01 1.28898829e-01 9.43743065e-02
      1.46799341e-01 1.23962298e-01 1.45861417e-01 1.52747497e-01
      1.44628406e-01 1.06500149e-01 1.15226410e-01 1.88540816e-01
      1.22600526e-01 1.99377328e-01 1.52281433e-01 1.63234681e-01
      3.03686589e-01 2.96461731e-01 8.47971812e-02 5.23043983e-02
      1.03280351e-01 6.68551028e-02 1.03022166e-01 1.54389665e-01
      1.40205950e-01 2.24854171e-01 1.68867916e-01 1.24400079e-01
      5.98290302e-02 7.73899853e-02 6.90330416e-02 9.55899730e-02
      1.23265415e-01 1.01656362e-01 2.69285172e-01 2.03886360e-01
      1.56239912e-01 8.38039219e-02 1.63724005e-01 1.35472879e-01
      1.13187566e-01 1.20335937e-01 1.26807153e-01 2.99260527e-01
      2.99260527e-01 1.57917246e-01 1.12937808e-01 1.27458900e-01
      2.17209026e-01 1.93881407e-01 1.85361728e-01 1.74754053e-01
      2.99260527e-01 2.60696322e-01 2.27493852e-01 1.52602494e-01
      7.60045722e-02 7.11380765e-02 6.65927008e-02 4.80322391e-02
      5.55474162e-02 1.26482725e-01 1.79130539e-01 2.80684322e-01
      2.50388116e-01 1.35970965e-01 9.34602618e-02 6.15278780e-02
      1.02648742e-01 7.51134455e-02 1.18854158e-01 1.82401583e-01
      1.80970326e-01 1.42032146e-01 1.04458727e-01 1.70834586e-01
      1.37000486e-01 1.00298747e-01 1.83893904e-01 2.64376909e-01
      1.65691853e-01 2.80684322e-01 2.71269441e-01 1.63744971e-01
      8.21327046e-02 5.64171411e-02 6.03359640e-02 1.68775588e-01
      2.80684322e-01 2.53587425e-01 2.37712815e-01 1.38067722e-01
      6.42046183e-02 6.48761988e-02 1.09293155e-01 1.50074169e-01
      1.14020206e-01 1.60163805e-01 2.01918259e-01 9.63805839e-02
      1.03786550e-01 3.79225649e-02 6.56144843e-02 9.00232494e-02
      9.25650075e-02 2.97421306e-01 2.97421306e-01 2.14971021e-01
      2.86018342e-01 1.83435529e-01 9.43204239e-02 3.18029486e-02
      9.06737670e-02 8.96466151e-02 1.40321165e-01 2.97421306e-01
      2.97421306e-01 9.29387882e-02 1.28575891e-01 8.12541917e-02
      1.00328021e-01 1.60074413e-01 1.52824134e-01 1.52824491e-01
      2.14060217e-01 1.88159615e-01 1.07586971e-02 1.87709872e-02
      6.80307252e-03 1.07656168e-02 1.41916098e-02 6.65407032e-02
      4.22425956e-01 2.22545162e-01 3.69830877e-02 1.04070343e-02
      4.52594832e-03 6.04422018e-03 1.14334188e-03 1.99179444e-02
      3.82864714e-01 4.22425956e-01 2.20957369e-01 1.91864818e-02
      1.01635810e-02 2.29212902e-02 1.35780992e-02 1.95412170e-02
      3.29646096e-02 7.82027021e-02 1.04533985e-01 1.90155245e-02
      9.79292113e-03 1.48009043e-02 5.53541677e-03 2.93298764e-03
      3.01743601e-03 9.52033252e-02 4.22425956e-01 4.22425956e-01
      1.51864020e-02 1.30095268e-02 2.46871579e-02 9.89502203e-03
      4.74620201e-02 4.81596708e-01 4.81596708e-01 7.16740415e-02
      2.31089648e-02 1.97215676e-02 1.91953462e-02 4.23694812e-02
      2.63170041e-02 3.15271355e-02 2.91298255e-02 5.38886972e-02
      2.98029948e-02 5.37495948e-02 4.37485166e-02 3.04992814e-02
      1.92008391e-02 8.06634128e-03 9.80479177e-03 1.13834918e-01
      4.81596708e-01 4.81596708e-01 1.08368814e-01 4.42913845e-02
      2.47040987e-02 2.95668654e-02 2.37827431e-02 3.00525706e-02
      2.49839835e-02 4.16797996e-02 3.74473631e-02 4.75298502e-02
      7.45254681e-02 4.98008803e-02 9.02099535e-02 7.37378895e-02
      1.04447998e-01 9.42668095e-02 1.14856921e-01 1.53414726e-01
      1.67035297e-01 1.40144646e-01 6.92927986e-02 1.70375332e-01
      1.51307896e-01 1.52152777e-01 1.92333266e-01 1.49245381e-01
      2.26238295e-01 3.05802912e-01 1.88804194e-01 1.48269698e-01
      9.12551433e-02 6.60476834e-02 1.00795910e-01 6.94172010e-02
      7.41958544e-02 1.23882651e-01 1.17819540e-01 1.64870769e-01
      1.40092164e-01 2.54885316e-01 1.85167030e-01 1.08474396e-01
      1.01595841e-01 1.03493735e-01 2.43940681e-01 3.73634517e-01
      1.85657531e-01 2.49164730e-01 1.11832872e-01 1.04517698e-01
      7.56826475e-02 1.20465338e-01 7.50479475e-02 8.03261548e-02
      1.38937041e-01 9.49062109e-02 1.44424856e-01 1.27026737e-01
      1.41056880e-01 2.12111518e-01 1.13750249e-01 9.67140347e-02
      1.43053621e-01 2.35976800e-01 1.70438945e-01 2.08997503e-01
      1.69878677e-01 1.24384701e-01 7.44672194e-02 6.23550713e-02
      4.94681671e-02 9.98670608e-02 1.75396606e-01 1.61253974e-01
      2.34594271e-01 1.30154759e-01 1.04671806e-01 1.13140337e-01
      7.24883899e-02 2.06788868e-01 3.17393064e-01 3.17393064e-01
      3.17393064e-01 2.66073048e-01 1.12056866e-01 1.50174975e-01
      3.24376166e-01 5.90370595e-02 7.92923197e-02 8.49868357e-02
      1.12941898e-01 1.38409376e-01 1.73066482e-01 1.85050890e-01
      8.50791857e-02 1.30019680e-01 4.39255983e-02 8.27635229e-02
      6.79124668e-02 5.28611206e-02 1.76598340e-01 3.08334529e-01
      6.22857586e-02 5.21178991e-02 7.82201216e-02 4.26133610e-02
      1.73729450e-01 2.32498452e-01 3.24376166e-01 3.24376166e-01
      2.41455197e-01 7.41142184e-02 4.66462336e-02 4.50034849e-02
      4.73708026e-02 8.70923847e-02 6.98641837e-02 1.52501211e-01
      3.10305804e-01 2.55500853e-01 1.52010784e-01 6.02116287e-02
      4.28838432e-02 3.03518232e-02 4.84702177e-02 8.99580494e-02
      7.10034147e-02 1.73338890e-01 2.96339303e-01 2.01038346e-01
      1.24549799e-01 1.19080968e-01 7.42654353e-02 3.55946794e-02
      7.04719946e-02 1.42286777e-01 3.13657939e-01 2.96564102e-01
      7.99734369e-02 6.24032393e-02 6.54351413e-02 8.08187947e-02
      9.65288207e-02 6.47614524e-02 6.40567541e-02 1.38062343e-01
      2.20252186e-01 3.04898053e-01 2.03601703e-01 2.67582774e-01
      2.09620938e-01 1.10153295e-01 7.96495378e-02 1.27869651e-01
      2.36923411e-01 3.13657939e-01 1.21100225e-01 1.16078243e-01
      1.06460504e-01 5.57019897e-02 5.81227094e-02 5.53353913e-02
      1.09478861e-01 2.73144543e-01 1.95169851e-01 1.98505178e-01
      1.71272337e-01 1.45371526e-01 5.74871115e-02 9.17685032e-02
      9.76611376e-02 7.51422942e-02 1.96338028e-01 2.24776864e-01
      2.08217353e-01 1.55561462e-01 1.49145395e-01 9.01357383e-02
      8.72619078e-02 1.27315685e-01 1.59002811e-01 2.62833804e-01
      2.43451968e-01 2.73144543e-01 1.83831707e-01 1.01377398e-01
      7.40957335e-02 1.58705145e-01 2.22266033e-01 1.41795471e-01
      2.73144543e-01 2.21048608e-01 2.81011224e-01 1.66497454e-01
      1.11448430e-01 4.74335104e-02 5.90643324e-02 4.33331542e-02
      3.16849910e-02 8.51474479e-02 2.45435238e-01 2.81011224e-01
      2.81011224e-01 2.32331067e-01 1.29922450e-01 5.70912100e-02
      3.01439664e-03 1.24488762e-02 5.74474111e-02 2.43389860e-01
      2.81011224e-01 2.69146472e-01 1.31279215e-01 5.11637479e-02
      9.22422782e-02 9.12079439e-02 3.63595672e-02 1.34257391e-01
      1.73894897e-01 2.81011224e-01 2.81011224e-01 2.51137018e-01
      1.41692862e-01 6.77710250e-02 5.23948669e-03 1.81411020e-02
      6.66285902e-02 1.38116255e-01 2.91927189e-01 2.91927189e-01
      1.89269468e-01 1.07814260e-01 5.51692583e-02 9.15872864e-03
      4.85488623e-02 1.19794741e-01 2.58631468e-01 1.98586106e-01
      1.65024251e-01 1.11615270e-01 4.51347232e-02 7.19444007e-02
      6.65200353e-02 1.15828902e-01 2.91927189e-01 2.91927189e-01
      2.18297377e-01 1.96282908e-01 1.53690517e-01 1.11483254e-01
      5.97905181e-02 2.43514813e-02 8.89809355e-02 1.47354484e-01
      1.61714256e-01 1.29037514e-01 1.27151102e-01 1.10687502e-01
      6.03458919e-02 1.07314795e-01 1.17669486e-01 1.33128986e-01
      2.91927189e-01 2.42164299e-01 3.06168646e-01 1.49566978e-01
      1.38748676e-01 1.14210129e-01 5.60420454e-02 7.62719885e-02
      8.14916342e-02 2.41761744e-01 2.46611625e-01 3.06168646e-01
      1.82482213e-01 1.32138059e-01 1.30507573e-01 6.08683266e-02
      5.49208969e-02 7.41751641e-02 1.03068396e-01 2.37525359e-01
      2.14034975e-01 1.74347132e-01 1.64191633e-01 1.75729379e-01
      9.38017294e-02 8.97385627e-02 5.07790521e-02 2.07878143e-01
      1.90560058e-01 3.06168646e-01 1.96749613e-01 1.78539306e-01
      1.54247314e-01 1.08935870e-01 3.88559550e-02 4.76702899e-02
      5.97744994e-02 1.80360407e-01 2.86345869e-01 1.72691539e-01
      6.37568757e-02 5.88100366e-02 1.18760385e-01 1.13769598e-01
      1.04646564e-01 9.30325836e-02 1.86331183e-01 1.25921294e-01
      1.09521970e-01 5.77805080e-02 5.65051511e-02 1.71626985e-01
      1.61302552e-01 1.80388793e-01 1.61660939e-01 2.28941947e-01
      2.12827891e-01 1.80280864e-01 9.06191841e-02 5.01518287e-02
      1.82267532e-01 1.37350246e-01 1.09177932e-01 7.35829920e-02
      1.73423439e-01 9.87337455e-02 1.06712274e-01 3.82977538e-02
      8.32498819e-02 2.50242144e-01 2.86160111e-01 2.94339061e-01
      2.45085776e-01 2.94339061e-01 5.82397655e-02 5.35871014e-02
      5.50414920e-02 3.08093131e-02 8.94982666e-02 1.79743797e-01
      2.21327394e-01 1.76085487e-01 1.83523029e-01 7.53534660e-02
      1.08937286e-01 1.07683055e-01 5.58276251e-02 1.10003851e-01
      1.75542533e-01 2.06414461e-01 2.06025898e-01 1.71058014e-01
      8.23178589e-02 4.97398078e-02 2.58286931e-02 7.02660754e-02
      1.22296177e-01 2.27884099e-01 2.92960942e-01 2.97047377e-01
      2.97047377e-01 1.55575857e-01 1.33148104e-01 7.86092952e-02
      9.79704037e-02 9.57455859e-02 1.24827884e-01 2.20204294e-01
      2.97047377e-01 2.82987654e-01 1.51627451e-01 1.94409356e-01
      1.44978091e-01 8.47136751e-02 8.37716460e-02 7.48277158e-02
      1.20012954e-01 2.29499370e-01 2.57431746e-01 1.79232761e-01
      1.97612435e-01 1.07392766e-01 1.53749123e-01 1.21129781e-01
      1.24686383e-01 1.66410759e-01 2.89834589e-01 2.42145866e-01
      1.61228627e-01 1.62967190e-01 1.19497821e-01 8.87292847e-02
      8.37453380e-02 5.07139973e-02 1.37686580e-01 1.74245417e-01
      2.02035084e-01 1.57793522e-01 1.54440403e-01 1.44537404e-01
      1.06806695e-01 1.48962080e-01 1.23033859e-01 1.52092069e-01
      2.35210344e-01 2.89834589e-01 1.19822726e-01 9.93909687e-02
      1.02524385e-01 1.39983267e-01 8.27082247e-02 9.90410075e-02
      2.18855023e-01 2.73601413e-01 1.38743833e-01 2.17828035e-01
      1.71046868e-01 1.48588255e-01 6.42790347e-02 5.24341911e-02
      1.06716216e-01 2.79248774e-01 2.58023441e-01 2.25167230e-01
      1.08724765e-01 9.50193182e-02 1.27711773e-01 8.75671208e-02
      8.48122239e-02 1.17208987e-01 1.66710466e-01 1.79011166e-01
      2.34692723e-01 1.91058785e-01 1.79918960e-01 1.06930017e-01
      3.44161764e-02 4.79913950e-02 1.03143267e-01 2.65181124e-01
      2.20202431e-01 2.79248774e-01 2.49471366e-01 2.26265505e-01
      8.64490718e-02 4.75042835e-02 1.53978854e-01 9.40577760e-02
      1.48445100e-01 2.15722859e-01 2.18991756e-01 1.53275281e-01
      1.63107723e-01 6.78046346e-02 1.31547242e-01 2.65701443e-01
      1.45101994e-01 1.17975309e-01 1.61389947e-01 9.91176665e-02
      2.89064020e-01 2.68958449e-01 9.19711888e-02 6.61892369e-02
      9.31626856e-02 4.56708632e-02 1.41937241e-01 1.63303852e-01
      2.84434825e-01 2.89064020e-01 2.00525686e-01 8.21426436e-02
      1.18438892e-01 1.54923975e-01 7.36622885e-02 9.11509693e-02
      7.69954249e-02 1.26473352e-01 5.57872690e-02 5.69148362e-02
      2.99724881e-02 6.27559796e-02 9.77356210e-02 1.13617681e-01
      4.84115444e-02 3.10959611e-02 3.45584080e-02 3.93326171e-02
      2.07641032e-02 8.63121264e-03 3.84102017e-02 4.60463524e-01
      4.60463524e-01 2.10571811e-01 8.58784001e-03 2.61767171e-02
      9.90134850e-02 6.03516363e-02 3.97321135e-02 5.05545363e-02
      7.22602010e-02 8.33601952e-02 4.01369110e-02 3.10843550e-02
      6.38135895e-02 3.51881869e-02 2.90447194e-02 4.88359444e-02
      3.91497552e-01 4.60463524e-01 2.76557684e-01 1.95912905e-02
      2.00842470e-02 3.36167999e-02 5.82811469e-03 2.30058562e-03
      1.74662727e-03 7.57496338e-03 2.21590117e-01 4.29210037e-01
