<?xml version="1.0"?>
<opencv_storage>
<opencv_ml_svm>
  <format>3</format>
  <svmType>C_SVC</svmType>
  <kernel>
    <type>RBF</type>
    <gamma>1.0000000000000001e-05</gamma></kernel>
  <C>1.0000000000000001e-01</C>
  <term_criteria><epsilon>1.1920928955078125e-07</epsilon>
    <iterations>1000</iterations></term_criteria>
  <var_count>40</var_count>
  <class_count>10</class_count>
  <class_labels type_id="opencv-matrix">
    <rows>10</rows>
    <cols>1</cols>
    <dt>i</dt>
    <data>
      0 1 2 3 4 5 6 7 8 9</data></class_labels>
  <sv_total>10</sv_total>
  <support_vectors>
    <_>
      3.33333343e-01 1.66666672e-01 0. 1. 1. 1. 0. 1. 1. 1. 0. 1. 1. 1.
      0. 1. 6.66666687e-01 6.66666687e-01 0. 6.66666687e-01
      6.66666687e-01 3.33333343e-01 7.77777791e-01 7.77777791e-01
      7.77777791e-01 7.77777791e-01 7.77777791e-01 7.77777791e-01
      7.77777791e-01 0. 7.50000000e-01 7.50000000e-01 7.50000000e-01
      7.50000000e-01 6.87500000e-01 0. 0. 8.75000000e-01 8.75000000e-01
      7.50000000e-01</_>
    <_>
      8.33333313e-01 3.33333343e-01 3.33333343e-01 1.66666672e-01
      8.33333313e-01 1. 1. 5.00000000e-01 1. 1. 8.33333313e-01
      3.33333343e-01 1. 8.33333313e-01 1.66666672e-01 8.33333313e-01
      5.00000000e-01 1.66666672e-01 6.66666687e-01 6.66666687e-01
      5.00000000e-01 3.00000012e-01 6.99999988e-01 8.00000012e-01
      8.00000012e-01 8.00000012e-01 6.99999988e-01 6.99999988e-01
      8.00000012e-01 0. 8.75000000e-01 6.87500000e-01 6.25000000e-01
      6.25000000e-01 6.25000000e-01 5.62500000e-01 5.62500000e-01
      5.00000000e-01 4.37500000e-01 5.62500000e-01</_>
    <_>
      3.33333343e-01 3.33333343e-01 1.66666672e-01 5.00000000e-01 1. 1.
      1. 0. 6.66666687e-01 3.33333343e-01 1.66666672e-01 6.66666687e-01
      1. 1. 1. 3.33333343e-01 5.00000000e-01 6.66666687e-01
      6.66666687e-01 1.66666672e-01 4.44444448e-01 2.22222224e-01
      7.77777791e-01 7.77777791e-01 7.77777791e-01 3.33333343e-01
      7.77777791e-01 7.77777791e-01 7.77777791e-01 1.11111112e-01
      7.50000000e-01 7.50000000e-01 6.25000000e-01 6.25000000e-01
      6.25000000e-01 6.25000000e-01 5.00000000e-01 3.75000000e-01
      3.75000000e-01 7.50000000e-01</_>
    <_>
      1. 1. 1.11111112e-01 6.66666687e-01 1. 5.55555582e-01
      5.55555582e-01 6.66666687e-01 7.77777791e-01 6.66666687e-01
      6.66666687e-01 6.66666687e-01 1.11111112e-01 3.33333343e-01
      2.22222224e-01 2.22222224e-01 1. 1. 6.66666687e-01 6.66666687e-01
      7.50000000e-01 6.66666687e-01 6.66666687e-01 6.66666687e-01
      6.66666687e-01 7.50000000e-01 6.66666687e-01 0. 8.33333313e-01
      8.33333313e-01 8.75000000e-01 8.12500000e-01 6.87500000e-01
      7.50000000e-01 6.87500000e-01 6.87500000e-01 6.87500000e-01 0. 0.
      8.75000000e-01</_>
    <_>
      0. 3.33333343e-01 3.33333343e-01 3.33333343e-01 0. 1. 1. 1.
      3.33333343e-01 3.33333343e-01 1.66666672e-01 3.33333343e-01 1. 1.
      1. 5.00000000e-01 5.00000000e-01 6.66666687e-01 5.00000000e-01
      1.66666672e-01 1.11111112e-01 1.11111112e-01 7.77777791e-01
      7.77777791e-01 3.33333343e-01 6.66666687e-01 7.77777791e-01
      7.77777791e-01 6.66666687e-01 2.22222224e-01 3.75000000e-01
      3.75000000e-01 3.75000000e-01 6.25000000e-01 6.25000000e-01
      6.25000000e-01 5.00000000e-01 5.62500000e-01 4.37500000e-01
      3.75000000e-01</_>
    <_>
      1. 5.00000000e-01 3.33333343e-01 3.33333343e-01 5.00000000e-01
      3.33333343e-01 1. 1. 0. 1.66666672e-01 3.33333343e-01
      1.66666672e-01 1.66666672e-01 6.66666687e-01 1. 5.00000000e-01
      6.66666687e-01 1.66666672e-01 6.66666687e-01 1.66666672e-01
      5.00000000e-01 4.00000006e-01 6.99999988e-01 8.00000012e-01
      3.00000012e-01 3.00000012e-01 5.00000000e-01 6.00000024e-01
      6.00000024e-01 3.00000012e-01 6.87500000e-01 3.12500000e-01
      2.50000000e-01 5.00000000e-01 5.62500000e-01 6.25000000e-01
      6.25000000e-01 5.00000000e-01 3.75000000e-01 6.25000000e-01</_>
    <_>
      3.33333343e-01 3.33333343e-01 3.33333343e-01 1.66666672e-01 1. 1.
      1. 1.66666672e-01 1. 1. 3.33333343e-01 6.66666687e-01 1. 1.
      3.33333343e-01 1. 1. 6.66666687e-01 8.33333313e-01 1. 0. 0.
      8.00000012e-01 8.00000012e-01 8.00000012e-01 8.00000012e-01
      8.00000012e-01 8.00000012e-01 8.00000012e-01 8.00000012e-01
      8.75000000e-01 8.75000000e-01 8.12500000e-01 6.87500000e-01
      5.62500000e-01 5.62500000e-01 6.25000000e-01 5.62500000e-01
      6.87500000e-01 8.12500000e-01</_>
    <_>
      8.33333313e-01 1.66666672e-01 3.33333343e-01 1.66666672e-01
      5.00000000e-01 5.00000000e-01 1. 3.33333343e-01 1. 1.66666672e-01
      1.66666672e-01 3.33333343e-01 1.66666672e-01 8.33333313e-01 1.
      3.33333343e-01 3.33333343e-01 5.00000000e-01 6.66666687e-01
      1.66666672e-01 5.00000000e-01 3.00000012e-01 6.00000024e-01
      6.00000024e-01 4.00000006e-01 3.00000012e-01 5.00000000e-01
      6.00000024e-01 6.00000024e-01 2.00000003e-01 8.12500000e-01
      3.75000000e-01 3.12500000e-01 5.00000000e-01 5.62500000e-01
      6.25000000e-01 5.62500000e-01 3.75000000e-01 1.87500000e-01
      5.00000000e-01</_>
    <_>
      8.33333313e-01 3.33333343e-01 3.33333343e-01 3.33333343e-01 0. 1.
      1. 5.00000000e-01 3.33333343e-01 5.00000000e-01 6.66666687e-01
      1.66666672e-01 1. 8.33333313e-01 6.66666687e-01 5.00000000e-01
      6.66666687e-01 6.66666687e-01 5.00000000e-01 1.66666672e-01
      6.00000024e-01 3.00000012e-01 6.00000024e-01 6.00000024e-01
      6.00000024e-01 1.00000001e-01 4.00000006e-01 8.00000012e-01
      8.00000012e-01 3.00000012e-01 7.50000000e-01 4.37500000e-01
      6.25000000e-01 6.25000000e-01 6.25000000e-01 6.25000000e-01
      6.25000000e-01 5.62500000e-01 1.87500000e-01 4.37500000e-01</_>
    <_>
      8.33333313e-01 1.66666672e-01 3.33333343e-01 1.66666672e-01
      1.66666672e-01 8.33333313e-01 1. 5.00000000e-01 0. 1. 1.
      5.00000000e-01 0. 1. 1. 5.00000000e-01 6.66666687e-01
      1.66666672e-01 6.66666687e-01 1.66666672e-01 5.00000000e-01
      3.00000012e-01 6.00000024e-01 6.00000024e-01 6.00000024e-01
      6.00000024e-01 6.00000024e-01 6.00000024e-01 6.00000024e-01
      3.00000012e-01 5.00000000e-01 2.50000000e-01 6.25000000e-01
      6.25000000e-01 7.50000000e-01 7.50000000e-01 7.50000000e-01
      6.87500000e-01 1.25000000e-01 3.75000000e-01</_></support_vectors>
  <decision_functions>
    <_>
      <sv_count>2</sv_count>
      <rho>0.</rho>
      <alpha>
        1.0000000000000001e-01 -1.0000000000000001e-01</alpha>
      <index>
        9 0</index></_>
    <_>
      <sv_count>2</sv_count>
      <rho>0.</rho>
      <alpha>
        1.0000000000000001e-01 -1.0000000000000001e-01</alpha>
      <index>
        9 1</index></_>
    <_>
      <sv_count>2</sv_count>
      <rho>0.</rho>
      <alpha>
        1.0000000000000001e-01 -1.0000000000000001e-01</alpha>
      <index>
        9 2</index></_>
    <_>
      <sv_count>2</sv_count>
      <rho>0.</rho>
      <alpha>
        1.0000000000000001e-01 -1.0000000000000001e-01</alpha>
      <index>
        9 3</index></_>
    <_>
      <sv_count>2</sv_count>
      <rho>0.</rho>
      <alpha>
        1.0000000000000001e-01 -1.0000000000000001e-01</alpha>
      <index>
        9 4</index></_>
    <_>
      <sv_count>2</sv_count>
      <rho>0.</rho>
      <alpha>
        1.0000000000000001e-01 -1.0000000000000001e-01</alpha>
      <index>
        9 5</index></_>
    <_>
      <sv_count>2</sv_count>
      <rho>0.</rho>
      <alpha>
        1.0000000000000001e-01 -1.0000000000000001e-01</alpha>
      <index>
        9 6</index></_>
    <_>
      <sv_count>2</sv_count>
      <rho>0.</rho>
      <alpha>
        1.0000000000000001e-01 -1.0000000000000001e-01</alpha>
      <index>
        9 7</index></_>
    <_>
      <sv_count>2</sv_count>
      <rho>0.</rho>
      <alpha>
        1.0000000000000001e-01 -1.0000000000000001e-01</alpha>
      <index>
        9 8</index></_>
    <_>
      <sv_count>2</sv_count>
      <rho>0.</rho>
      <alpha>
        1.0000000000000001e-01 -1.0000000000000001e-01</alpha>
      <index>
        0 1</index></_>
    <_>
      <sv_count>2</sv_count>
      <rho>0.</rho>
      <alpha>
        1.0000000000000001e-01 -1.0000000000000001e-01</alpha>
      <index>
        0 2</index></_>
    <_>
      <sv_count>2</sv_count>
      <rho>0.</rho>
      <alpha>
        1.0000000000000001e-01 -1.0000000000000001e-01</alpha>
      <index>
        0 3</index></_>
    <_>
      <sv_count>2</sv_count>
      <rho>0.</rho>
      <alpha>
        1.0000000000000001e-01 -1.0000000000000001e-01</alpha>
      <index>
        0 4</index></_>
    <_>
      <sv_count>2</sv_count>
      <rho>0.</rho>
      <alpha>
        1.0000000000000001e-01 -1.0000000000000001e-01</alpha>
      <index>
        0 5</index></_>
    <_>
      <sv_count>2</sv_count>
      <rho>0.</rho>
      <alpha>
        1.0000000000000001e-01 -1.0000000000000001e-01</alpha>
      <index>
        0 6</index></_>
    <_>
      <sv_count>2</sv_count>
      <rho>0.</rho>
      <alpha>
        1.0000000000000001e-01 -1.0000000000000001e-01</alpha>
      <index>
        0 7</index></_>
    <_>
      <sv_count>2</sv_count>
      <rho>0.</rho>
      <alpha>
        1.0000000000000001e-01 -1.0000000000000001e-01</alpha>
      <index>
        0 8</index></_>
    <_>
      <sv_count>2</sv_count>
      <rho>0.</rho>
      <alpha>
        1.0000000000000001e-01 -1.0000000000000001e-01</alpha>
      <index>
        1 2</index></_>
    <_>
      <sv_count>2</sv_count>
      <rho>0.</rho>
      <alpha>
        1.0000000000000001e-01 -1.0000000000000001e-01</alpha>
      <index>
        1 3</index></_>
    <_>
      <sv_count>2</sv_count>
      <rho>0.</rho>
      <alpha>
        1.0000000000000001e-01 -1.0000000000000001e-01</alpha>
      <index>
        1 4</index></_>
    <_>
      <sv_count>2</sv_count>
      <rho>0.</rho>
      <alpha>
        1.0000000000000001e-01 -1.0000000000000001e-01</alpha>
      <index>
        1 5</index></_>
    <_>
      <sv_count>2</sv_count>
      <rho>0.</rho>
      <alpha>
        1.0000000000000001e-01 -1.0000000000000001e-01</alpha>
      <index>
        1 6</index></_>
    <_>
      <sv_count>2</sv_count>
      <rho>0.</rho>
      <alpha>
        1.0000000000000001e-01 -1.0000000000000001e-01</alpha>
      <index>
        1 7</index></_>
    <_>
      <sv_count>2</sv_count>
      <rho>0.</rho>
      <alpha>
        1.0000000000000001e-01 -1.0000000000000001e-01</alpha>
      <index>
        1 8</index></_>
    <_>
      <sv_count>2</sv_count>
      <rho>0.</rho>
      <alpha>
        1.0000000000000001e-01 -1.0000000000000001e-01</alpha>
      <index>
        2 3</index></_>
    <_>
      <sv_count>2</sv_count>
      <rho>0.</rho>
      <alpha>
        1.0000000000000001e-01 -1.0000000000000001e-01</alpha>
      <index>
        2 4</index></_>
    <_>
      <sv_count>2</sv_count>
      <rho>0.</rho>
      <alpha>
        1.0000000000000001e-01 -1.0000000000000001e-01</alpha>
      <index>
        2 5</index></_>
    <_>
      <sv_count>2</sv_count>
      <rho>0.</rho>
      <alpha>
        1.0000000000000001e-01 -1.0000000000000001e-01</alpha>
      <index>
        2 6</index></_>
    <_>
      <sv_count>2</sv_count>
      <rho>0.</rho>
      <alpha>
        1.0000000000000001e-01 -1.0000000000000001e-01</alpha>
      <index>
        2 7</index></_>
    <_>
      <sv_count>2</sv_count>
      <rho>0.</rho>
      <alpha>
        1.0000000000000001e-01 -1.0000000000000001e-01</alpha>
      <index>
        2 8</index></_>
    <_>
      <sv_count>2</sv_count>
      <rho>0.</rho>
      <alpha>
        1.0000000000000001e-01 -1.0000000000000001e-01</alpha>
      <index>
        3 4</index></_>
    <_>
      <sv_count>2</sv_count>
      <rho>0.</rho>
      <alpha>
        1.0000000000000001e-01 -1.0000000000000001e-01</alpha>
      <index>
        3 5</index></_>
    <_>
      <sv_count>2</sv_count>
      <rho>0.</rho>
      <alpha>
        1.0000000000000001e-01 -1.0000000000000001e-01</alpha>
      <index>
        3 6</index></_>
    <_>
      <sv_count>2</sv_count>
      <rho>0.</rho>
      <alpha>
        1.0000000000000001e-01 -1.0000000000000001e-01</alpha>
      <index>
        3 7</index></_>
    <_>
      <sv_count>2</sv_count>
      <rho>0.</rho>
      <alpha>
        1.0000000000000001e-01 -1.0000000000000001e-01</alpha>
      <index>
        3 8</index></_>
    <_>
      <sv_count>2</sv_count>
      <rho>0.</rho>
      <alpha>
        1.0000000000000001e-01 -1.0000000000000001e-01</alpha>
      <index>
        4 5</index></_>
    <_>
      <sv_count>2</sv_count>
      <rho>0.</rho>
      <alpha>
        1.0000000000000001e-01 -1.0000000000000001e-01</alpha>
      <index>
        4 6</index></_>
    <_>
      <sv_count>2</sv_count>
      <rho>0.</rho>
      <alpha>
        1.0000000000000001e-01 -1.0000000000000001e-01</alpha>
      <index>
        4 7</index></_>
    <_>
      <sv_count>2</sv_count>
      <rho>0.</rho>
      <alpha>
        1.0000000000000001e-01 -1.0000000000000001e-01</alpha>
      <index>
        4 8</index></_>
    <_>
      <sv_count>2</sv_count>
      <rho>0.</rho>
      <alpha>
        1.0000000000000001e-01 -1.0000000000000001e-01</alpha>
      <index>
        5 6</index></_>
    <_>
      <sv_count>2</sv_count>
      <rho>0.</rho>
      <alpha>
        1.0000000000000001e-01 -1.0000000000000001e-01</alpha>
      <index>
        5 7</index></_>
    <_>
      <sv_count>2</sv_count>
      <rho>0.</rho>
      <alpha>
        1.0000000000000001e-01 -1.0000000000000001e-01</alpha>
      <index>
        5 8</index></_>
    <_>
      <sv_count>2</sv_count>
      <rho>0.</rho>
      <alpha>
        1.0000000000000001e-01 -1.0000000000000001e-01</alpha>
      <index>
        6 7</index></_>
    <_>
      <sv_count>2</sv_count>
      <rho>0.</rho>
      <alpha>
        1.0000000000000001e-01 -1.0000000000000001e-01</alpha>
      <index>
        6 8</index></_>
    <_>
      <sv_count>2</sv_count>
      <rho>0.</rho>
      <alpha>
        1.0000000000000001e-01 -1.0000000000000001e-01</alpha>
      <index>
        7 8</index></_></decision_functions></opencv_ml_svm>
</opencv_storage>
